{"learner":{"attributes":{"best_iteration":"372","best_score":"7.127751209415207","scikit_learn":"{\"_estimator_type\": \"regressor\"}"},"feature_names":["odleglosc","godzina_szczytu","deszcz","liczba_dan","weekend_swieto","pora_dnia"],"feature_types":["float","int","int","int","int","int"],"gradient_booster":{"model":{"cats":{"enc":[],"feature_segments":[],"sorted_idx":[]},"gbtree_model_param":{"num_parallel_tree":"1","num_trees":"383"},"iteration_indptr":[0,1,2,3,4,5,6,7,8,9,10,11,12,13,14,15,16,17,18,19,20,21,22,23,24,25,26,27,28,29,30,31,32,33,34,35,36,37,38,39,40,41,42,43,44,45,46,47,48,49,50,51,52,53,54,55,56,57,58,59,60,61,62,63,64,65,66,67,68,69,70,71,72,73,74,75,76,77,78,79,80,81,82,83,84,85,86,87,88,89,90,91,92,93,94,95,96,97,98,99,100,101,102,103,104,105,106,107,108,109,110,111,112,113,114,115,116,117,118,119,120,121,122,123,124,125,126,127,128,129,130,131,132,133,134,135,136,137,138,139,140,141,142,143,144,145,146,147,148,149,150,151,152,153,154,155,156,157,158,159,160,161,162,163,164,165,166,167,168,169,170,171,172,173,174,175,176,177,178,179,180,181,182,183,184,185,186,187,188,189,190,191,192,193,194,195,196,197,198,199,200,201,202,203,204,205,206,207,208,209,210,211,212,213,214,215,216,217,218,219,220,221,222,223,224,225,226,227,228,229,230,231,232,233,234,235,236,237,238,239,240,241,242,243,244,245,246,247,248,249,250,251,252,253,254,255,256,257,258,259,260,261,262,263,264,265,266,267,268,269,270,271,272,273,274,275,276,277,278,279,280,281,282,283,284,285,286,287,288,289,290,291,292,293,294,295,296,297,298,299,300,301,302,303,304,305,306,307,308,309,310,311,312,313,314,315,316,317,318,319,320,321,322,323,324,325,326,327,328,329,330,331,332,333,334,335,336,337,338,339,340,341,342,343,344,345,346,347,348,349,350,351,352,353,354,355,356,357,358,359,360,361,362,363,364,365,366,367,368,369,370,371,372,373,374,375,376,377,378,379,380,381,382,383],"tree_info":[0,0,0,0,0,0,0,0,0,0,0,0,0,0,0,0,0,0,0,0,0,0,0,0,0,0,0,0,0,0,0,0,0,0,0,0,0,0,0,0,0,0,0,0,0,0,0,0,0,0,0,0,0,0,0,0,0,0,0,0,0,0,0,0,0,0,0,0,0,0,0,0,0,0,0,0,0,0,0,0,0,0,0,0,0,0,0,0,0,0,0,0,0,0,0,0,0,0,0,0,0,0,0,0,0,0,0,0,0,0,0,0,0,0,0,0,0,0,0,0,0,0,0,0,0,0,0,0,0,0,0,0,0,0,0,0,0,0,0,0,0,0,0,0,0,0,0,0,0,0,0,0,0,0,0,0,0,0,0,0,0,0,0,0,0,0,0,0,0,0,0,0,0,0,0,0,0,0,0,0,0,0,0,0,0,0,0,0,0,0,0,0,0,0,0,0,0,0,0,0,0,0,0,0,0,0,0,0,0,0,0,0,0,0,0,0,0,0,0,0,0,0,0,0,0,0,0,0,0,0,0,0,0,0,0,0,0,0,0,0,0,0,0,0,0,0,0,0,0,0,0,0,0,0,0,0,0,0,0,0,0,0,0,0,0,0,0,0,0,0,0,0,0,0,0,0,0,0,0,0,0,0,0,0,0,0,0,0,0,0,0,0,0,0,0,0,0,0,0,0,0,0,0,0,0,0,0,0,0,0,0,0,0,0,0,0,0,0,0,0,0,0,0,0,0,0,0,0,0,0,0,0,0,0,0,0,0,0,0,0,0,0,0,0,0,0,0,0,0,0,0,0,0,0,0,0,0,0,0,0,0,0,0,0,0,0,0,0,0,0,0,0,0,0,0,0,0,0,0,0,0,0,0],"trees":[{"base_weights":[4.7564805E-7,-1.9076696E1,8.410157E0,-3.0241749E1,-1.1774075E1,-4.1294565E0,1.4501828E1,-1.5711516E0,-4.695928E-1,-8.242201E-1,-3.314974E-1,-6.677205E-1,1.7742664E-1,3.2034114E-1,1.1351016E0],"categories":[],"categories_nodes":[],"categories_segments":[],"categories_sizes":[],"default_left":[0,0,0,0,0,0,0,0,0,0,0,0,0,0,0],"id":0,"left_children":[1,3,5,7,9,11,13,-1,-1,-1,-1,-1,-1,-1,-1],"loss_changes":[6.449608E4,9.672637E3,2.1371916E4,8.8709766E2,1.7322285E3,6.563664E3,1.2334117E4,0E0,0E0,0E0,0E0,0E0,0E0,0E0,0E0],"parents":[2147483647,0,0,1,1,2,2,3,3,4,4,5,5,6,6],"right_children":[2,4,6,8,10,12,14,-1,-1,-1,-1,-1,-1,-1,-1],"split_conditions":[6.21761E0,5E0,4E0,5.54621E0,1E0,1.24926405E1,1.3438285E1,-1.5711516E0,-4.695928E-1,-8.242201E-1,-3.314974E-1,-6.677205E-1,1.7742664E-1,3.2034114E-1,1.1351016E0],"split_indices":[0,3,3,0,4,0,0,0,0,0,0,0,0,0,0],"split_type":[0,0,0,0,0,0,0,0,0,0,0,0,0,0,0],"sum_hessian":[4E2,1.22E2,2.78E2,4.7E1,7.5E1,9.1E1,1.87E2,4.4E1,3E0,3.8E1,3.7E1,4.1E1,5E1,9.5E1,9.2E1],"tree_param":{"num_deleted":"0","num_feature":"6","num_nodes":"15","size_leaf_vector":"1"}},{"base_weights":[-5.565158E-3,-1.814885E1,7.993107E0,-2.8772177E1,-1.1200579E1,-3.928316E0,1.3784478E1,-1.6683403E0,-1.0912745E0,-7.8406584E-1,-3.1535873E-1,-6.351295E-1,1.6872913E-1,4.3523344E-1,1.2955056E0],"categories":[],"categories_nodes":[],"categories_segments":[],"categories_sizes":[],"default_left":[0,0,0,0,0,0,0,0,0,0,0,0,0,0,0],"id":1,"left_children":[1,3,5,7,9,11,13,-1,-1,-1,-1,-1,-1,-1,-1],"loss_changes":[5.833906E4,8.756828E3,1.93167E4,8.0378906E2,1.5674756E3,5.9380083E3,1.1354488E4,0E0,0E0,0E0,0E0,0E0,0E0,0E0,0E0],"parents":[2147483647,0,0,1,1,2,2,3,3,4,4,5,5,6,6],"right_children":[2,4,6,8,10,12,14,-1,-1,-1,-1,-1,-1,-1,-1],"split_conditions":[6.21761E0,5E0,4E0,1E0,1E0,1.24926405E1,1.629721E1,-1.6683403E0,-1.0912745E0,-7.8406584E-1,-3.1535873E-1,-6.351295E-1,1.6872913E-1,4.3523344E-1,1.2955056E0],"split_indices":[0,3,3,1,4,0,0,0,0,0,0,0,0,0,0],"split_type":[0,0,0,0,0,0,0,0,0,0,0,0,0,0,0],"sum_hessian":[4E2,1.22E2,2.78E2,4.7E1,7.5E1,9.1E1,1.87E2,2.6E1,2.1E1,3.8E1,3.7E1,4.1E1,5E1,1.33E2,5.4E1],"tree_param":{"num_deleted":"0","num_feature":"6","num_nodes":"15","size_leaf_vector":"1"}},{"base_weights":[-1.1757753E-2,-1.3934418E1,9.483663E0,-2.5388687E1,-8.026902E0,1.0381987E0,1.679935E1,-1.472373E0,-7.7048415E-1,-5.8594185E-1,1.8098363E-1,-3.7135643E-1,3.015617E-1,5.6154174E-1,1.3772852E0],"categories":[],"categories_nodes":[],"categories_segments":[],"categories_sizes":[],"default_left":[0,0,0,0,0,0,0,0,0,0,0,0,0,0,0],"id":2,"left_children":[1,3,5,7,9,11,13,-1,-1,-1,-1,-1,-1,-1,-1],"loss_changes":[5.3144953E4,1.08258125E4,1.4749029E4,1.7738633E3,4.729244E3,4.778775E3,7.3503164E3,0E0,0E0,0E0,0E0,0E0,0E0,0E0,0E0],"parents":[2147483647,0,0,1,1,2,2,3,3,4,4,5,5,6,6],"right_children":[2,4,6,8,10,12,14,-1,-1,-1,-1,-1,-1,-1,-1],"split_conditions":[8.165405E0,4E0,5E0,5.54621E0,6.21761E0,1.308087E1,1.629721E1,-1.472373E0,-7.7048415E-1,-5.8594185E-1,1.8098363E-1,-3.7135643E-1,3.015617E-1,5.6154174E-1,1.3772852E0],"split_indices":[0,3,3,0,0,0,0,0,0,0,0,0,0,0,0],"split_type":[0,0,0,0,0,0,0,0,0,0,0,0,0,0,0],"sum_hessian":[4E2,1.62E2,2.38E2,5.4E1,1.08E2,1.11E2,1.27E2,3.7E1,1.7E1,8.2E1,2.6E1,4.1E1,7E1,8.5E1,4.2E1],"tree_param":{"num_deleted":"0","num_feature":"6","num_nodes":"15","size_leaf_vector":"1"}},{"base_weights":[-1.3110914E-2,-9.602976E0,1.2552994E1,-1.4130205E1,5.9916897E0,4.485447E0,1.969488E1,-1.0559531E0,-4.205254E-1,-2.1242283E-1,6.8213725E-1,2.3853134E-2,5.429451E-1,6.853098E-1,1.3100222E0],"categories":[],"categories_nodes":[],"categories_segments":[],"categories_sizes":[],"default_left":[0,0,0,0,0,0,0,0,0,0,0,0,0,0,0],"id":3,"left_children":[1,3,5,7,9,11,13,-1,-1,-1,-1,-1,-1,-1,-1],"loss_changes":[4.8443953E4,1.6181605E4,9.9371E3,6.8978047E3,4.1320527E3,2.1152417E3,3.2251953E3,0E0,0E0,0E0,0E0,0E0,0E0,0E0,0E0],"parents":[2147483647,0,0,1,1,2,2,3,3,4,4,5,5,6,6],"right_children":[2,4,6,8,10,12,14,-1,-1,-1,-1,-1,-1,-1,-1],"split_conditions":[1.187569E1,8E0,5E0,4.8732514E0,5.978782E0,1E0,1.629721E1,-1.0559531E0,-4.205254E-1,-2.1242283E-1,6.8213725E-1,2.3853134E-2,5.429451E-1,6.853098E-1,1.3100222E0],"split_indices":[0,3,3,0,0,1,0,0,0,0,0,0,0,0,0],"split_type":[0,0,0,0,0,0,0,0,0,0,0,0,0,0,0],"sum_hessian":[4E2,2.27E2,1.73E2,1.76E2,5.1E1,8.2E1,9.1E1,7.8E1,9.8E1,2.2E1,2.9E1,5.1E1,3.1E1,4.9E1,4.2E1],"tree_param":{"num_deleted":"0","num_feature":"6","num_nodes":"15","size_leaf_vector":"1"}},{"base_weights":[-8.575991E-3,-1.3050592E1,8.348996E0,-2.4403587E1,-7.35808E0,3.2747698E0,1.8395632E1,-1.4372985E0,-9.281988E-1,-5.228042E-1,1.8312179E-1,-2.7107298E-1,4.3069324E-1,6.3228834E-1,1.2695706E0],"categories":[],"categories_nodes":[],"categories_segments":[],"categories_sizes":[],"default_left":[0,0,0,0,0,0,0,0,0,0,0,0,0,0,0],"id":4,"left_children":[1,3,5,7,9,11,13,-1,-1,-1,-1,-1,-1,-1,-1],"loss_changes":[4.3817793E4,9.966885E3,1.2429592E4,7.8496875E2,3.6573042E3,7.6612188E3,2.977338E3,0E0,0E0,0E0,0E0,0E0,0E0,0E0,0E0],"parents":[2147483647,0,0,1,1,2,2,3,3,4,4,5,5,6,6],"right_children":[2,4,6,8,10,12,14,-1,-1,-1,-1,-1,-1,-1,-1],"split_conditions":[7.837062E0,4E0,7E0,1E0,6.21761E0,1.2764385E1,1E0,-1.4372985E0,-9.281988E-1,-5.228042E-1,1.8312179E-1,-2.7107298E-1,4.3069324E-1,6.3228834E-1,1.2695706E0],"split_indices":[0,3,3,4,0,0,2,0,0,0,0,0,0,0,0],"split_type":[0,0,0,0,0,0,0,0,0,0,0,0,0,0,0],"sum_hessian":[4E2,1.56E2,2.44E2,5.1E1,1.05E2,1.63E2,8.1E1,2.7E1,2.4E1,8.2E1,2.3E1,6.2E1,1.01E2,4.6E1,3.5E1],"tree_param":{"num_deleted":"0","num_feature":"6","num_nodes":"15","size_leaf_vector":"1"}},{"base_weights":[-9.752154E-3,-8.720481E0,1.1404363E1,-1.2871495E1,5.576635E0,3.91014E0,1.8041494E1,-9.41616E-1,-3.314466E-1,-1.9645786E-1,6.071395E-1,6.286423E-3,4.9688083E-1,5.8867884E-1,1.2026733E0],"categories":[],"categories_nodes":[],"categories_segments":[],"categories_sizes":[],"default_left":[0,0,0,0,0,0,0,0,0,0,0,0,0,0,0],"id":5,"left_children":[1,3,5,7,9,11,13,-1,-1,-1,-1,-1,-1,-1,-1],"loss_changes":[3.9968977E4,1.3603018E4,8.584242E3,6.4614785E3,3.2933691E3,1.8920181E3,3.1835996E3,0E0,0E0,0E0,0E0,0E0,0E0,0E0,0E0],"parents":[2147483647,0,0,1,1,2,2,3,3,4,4,5,5,6,6],"right_children":[2,4,6,8,10,12,14,-1,-1,-1,-1,-1,-1,-1,-1],"split_conditions":[1.187569E1,8E0,5E0,1E0,5.933606E0,1E0,1E0,-9.41616E-1,-3.314466E-1,-1.9645786E-1,6.071395E-1,6.286423E-3,4.9688083E-1,5.8867884E-1,1.2026733E0],"split_indices":[0,3,3,1,0,1,1,0,0,0,0,0,0,0,0],"split_type":[0,0,0,0,0,0,0,0,0,0,0,0,0,0,0],"sum_hessian":[4E2,2.27E2,1.73E2,1.76E2,5.1E1,8.2E1,9.1E1,8.9E1,8.7E1,2.1E1,3E1,5.1E1,3.1E1,4.6E1,4.5E1],"tree_param":{"num_deleted":"0","num_feature":"6","num_nodes":"15","size_leaf_vector":"1"}},{"base_weights":[-5.6944583E-3,-1.1925228E1,7.6325607E0,-2.2575274E1,-6.5881753E0,6.1057156E-1,1.3738639E1,-1.2592738E0,-7.228874E-1,-5.5320793E-1,1.1348321E-2,-2.6069728E-1,2.8368452E-1,4.494558E-1,1.1624771E0],"categories":[],"categories_nodes":[],"categories_segments":[],"categories_sizes":[],"default_left":[0,0,0,0,0,0,0,0,0,0,0,0,0,0,0],"id":6,"left_children":[1,3,5,7,9,11,13,-1,-1,-1,-1,-1,-1,-1,-1],"loss_changes":[3.6599844E4,8.775129E3,1.049643E4,7.376699E2,3.235984E3,3.4209578E3,5.7085723E3,0E0,0E0,0E0,0E0,0E0,0E0,0E0,0E0],"parents":[2147483647,0,0,1,1,2,2,3,3,4,4,5,5,6,6],"right_children":[2,4,6,8,10,12,14,-1,-1,-1,-1,-1,-1,-1,-1],"split_conditions":[7.837062E0,4E0,5E0,5.54621E0,5.133932E0,1.4387495E1,1.629721E1,-1.2592738E0,-7.228874E-1,-5.5320793E-1,1.1348321E-2,-2.6069728E-1,2.8368452E-1,4.494558E-1,1.1624771E0],"split_indices":[0,3,3,0,0,0,0,0,0,0,0,0,0,0,0],"split_type":[0,0,0,0,0,0,0,0,0,0,0,0,0,0,0],"sum_hessian":[4E2,1.56E2,2.44E2,5.1E1,1.05E2,1.14E2,1.3E2,3.7E1,1.4E1,6.3E1,4.2E1,5.3E1,6.1E1,8.8E1,4.2E1],"tree_param":{"num_deleted":"0","num_feature":"6","num_nodes":"15","size_leaf_vector":"1"}},{"base_weights":[-7.626141E-3,-1.0997947E1,7.4878964E0,-1.609992E1,-1.484029E0,7.110762E-1,1.3359115E1,-9.710318E-1,-3.3065882E-1,-3.0080795E-1,2.162684E-1,-2.4982701E-1,2.697291E-1,4.4131413E-1,1.1057051E0],"categories":[],"categories_nodes":[],"categories_segments":[],"categories_sizes":[],"default_left":[0,0,0,0,0,0,0,0,0,0,0,0,0,0,0],"id":7,"left_children":[1,3,5,7,9,11,13,-1,-1,-1,-1,-1,-1,-1,-1],"loss_changes":[3.3116008E4,7.888088E3,9.499878E3,3.2108594E3,1.5531007E3,3.0208994E3,4.8844805E3,0E0,0E0,0E0,0E0,0E0,0E0,0E0,0E0],"parents":[2147483647,0,0,1,1,2,2,3,3,4,4,5,5,6,6],"right_children":[2,4,6,8,10,12,14,-1,-1,-1,-1,-1,-1,-1,-1],"split_conditions":[8.165405E0,7E0,5E0,3E0,1E0,1.4387495E1,1.629721E1,-9.710318E-1,-3.3065882E-1,-3.0080795E-1,2.162684E-1,-2.4982701E-1,2.697291E-1,4.4131413E-1,1.1057051E0],"split_indices":[0,3,3,5,1,0,0,0,0,0,0,0,0,0,0],"split_type":[0,0,0,0,0,0,0,0,0,0,0,0,0,0,0],"sum_hessian":[4E2,1.62E2,2.38E2,1.05E2,5.7E1,1.11E2,1.27E2,7.7E1,2.8E1,3.2E1,2.5E1,5E1,6.1E1,8.5E1,4.2E1],"tree_param":{"num_deleted":"0","num_feature":"6","num_nodes":"15","size_leaf_vector":"1"}},{"base_weights":[-6.7952983E-3,-1.3108434E1,5.7692204E0,-2.1537115E1,-7.612577E0,-3.28239E0,1.0168044E1,-1.330847E0,-7.8995E-1,-5.910493E-1,-1.5465444E-1,-4.9262914E-1,7.617671E-2,2.1726465E-1,8.034646E-1],"categories":[],"categories_nodes":[],"categories_segments":[],"categories_sizes":[],"default_left":[0,0,0,0,0,0,0,0,0,0,0,0,0,0,0],"id":8,"left_children":[1,3,5,7,9,11,13,-1,-1,-1,-1,-1,-1,-1,-1],"loss_changes":[3.0421408E4,5.533756E3,1.1142162E4,9.786133E2,1.4089458E3,2.9199888E3,6.3901367E3,0E0,0E0,0E0,0E0,0E0,0E0,0E0,0E0],"parents":[2147483647,0,0,1,1,2,2,3,3,4,4,5,5,6,6],"right_children":[2,4,6,8,10,12,14,-1,-1,-1,-1,-1,-1,-1,-1],"split_conditions":[6.21761E0,5E0,4E0,1E0,1E0,1.2021249E1,1.3438285E1,-1.330847E0,-7.8995E-1,-5.910493E-1,-1.5465444E-1,-4.9262914E-1,7.617671E-2,2.1726465E-1,8.034646E-1],"split_indices":[0,3,3,4,4,0,0,0,0,0,0,0,0,0,0],"split_type":[0,0,0,0,0,0,0,0,0,0,0,0,0,0,0],"sum_hessian":[4E2,1.22E2,2.78E2,4.7E1,7.5E1,9.1E1,1.87E2,2.3E1,2.4E1,3.8E1,3.7E1,3.8E1,5.3E1,9.5E1,9.2E1],"tree_param":{"num_deleted":"0","num_feature":"6","num_nodes":"15","size_leaf_vector":"1"}},{"base_weights":[-1.2097175E-2,-1.2476317E1,5.482925E0,-2.0504444E1,-7.2417593E0,1.1305336E0,1.3900919E1,-1.2670772E0,-7.520325E-1,-5.622546E-1,-1.4712517E-1,-2.807619E-1,3.3373955E-1,4.2909288E-1,1.03486E0],"categories":[],"categories_nodes":[],"categories_segments":[],"categories_sizes":[],"default_left":[0,0,0,0,0,0,0,0,0,0,0,0,0,0,0],"id":9,"left_children":[1,3,5,7,9,11,13,-1,-1,-1,-1,-1,-1,-1,-1],"loss_changes":[2.7533363E4,5.020426E3,1.0206398E4,8.874336E2,1.2749746E3,6.9565347E3,3.2566133E3,0E0,0E0,0E0,0E0,0E0,0E0,0E0,0E0],"parents":[2147483647,0,0,1,1,2,2,3,3,4,4,5,5,6,6],"right_children":[2,4,6,8,10,12,14,-1,-1,-1,-1,-1,-1,-1,-1],"split_conditions":[6.21761E0,5E0,7E0,1E0,1E0,1.2764385E1,1E0,-1.2670772E0,-7.520325E-1,-5.622546E-1,-1.4712517E-1,-2.807619E-1,3.3373955E-1,4.2909288E-1,1.03486E0],"split_indices":[0,3,3,4,4,0,2,0,0,0,0,0,0,0,0],"split_type":[0,0,0,0,0,0,0,0,0,0,0,0,0,0,0],"sum_hessian":[4E2,1.22E2,2.78E2,4.7E1,7.5E1,1.84E2,9.4E1,2.3E1,2.4E1,3.8E1,3.7E1,8.3E1,1.01E2,5.4E1,4E1],"tree_param":{"num_deleted":"0","num_feature":"6","num_nodes":"15","size_leaf_vector":"1"}},{"base_weights":[-1.4513801E-2,-6.9186788E0,9.032407E0,-1.0383706E1,5.0087924E0,2.9083283E0,1.4459212E1,-7.970154E-1,-2.2914104E-1,-2.1892352E-1,4.6512666E-1,-2.9604772E-2,4.2528158E-1,4.3825516E-1,9.981387E-1],"categories":[],"categories_nodes":[],"categories_segments":[],"categories_sizes":[],"default_left":[0,0,0,0,0,0,0,0,0,0,0,0,0,0,0],"id":10,"left_children":[1,3,5,7,9,11,13,-1,-1,-1,-1,-1,-1,-1,-1],"loss_changes":[2.5109525E4,9.475026E3,5.7406953E3,5.6322246E3,2.1366675E3,1.6312498E3,2.7081094E3,0E0,0E0,0E0,0E0,0E0,0E0,0E0,0E0],"parents":[2147483647,0,0,1,1,2,2,3,3,4,4,5,5,6,6],"right_children":[2,4,6,8,10,12,14,-1,-1,-1,-1,-1,-1,-1,-1],"split_conditions":[1.187569E1,8E0,5E0,1E0,4.70851E0,1E0,1E0,-7.970154E-1,-2.2914104E-1,-2.1892352E-1,4.6512666E-1,-2.9604772E-2,4.2528158E-1,4.3825516E-1,9.981387E-1],"split_indices":[0,3,3,1,0,1,1,0,0,0,0,0,0,0,0],"split_type":[0,0,0,0,0,0,0,0,0,0,0,0,0,0,0],"sum_hessian":[4E2,2.27E2,1.73E2,1.76E2,5.1E1,8.2E1,9.1E1,8.9E1,8.7E1,1.6E1,3.5E1,5.1E1,3.1E1,4.6E1,4.5E1],"tree_param":{"num_deleted":"0","num_feature":"6","num_nodes":"15","size_leaf_vector":"1"}},{"base_weights":[-1.1165419E-2,-1.14343195E1,5.024889E0,-1.8989323E1,-6.512287E0,-3.057525E0,8.953384E0,-1.1800035E0,-6.9017166E-1,-5.155407E-1,-1.2212117E-1,-4.3312302E-1,5.235524E-2,1.6255198E-1,7.1921337E-1],"categories":[],"categories_nodes":[],"categories_segments":[],"categories_sizes":[],"default_left":[0,0,0,0,0,0,0,0,0,0,0,0,0,0,0],"id":11,"left_children":[1,3,5,7,9,11,13,-1,-1,-1,-1,-1,-1,-1,-1],"loss_changes":[2.3126033E4,4.450212E3,8.886107E3,8.2195703E2,1.1497373E3,2.1256392E3,5.7753633E3,0E0,0E0,0E0,0E0,0E0,0E0,0E0,0E0],"parents":[2147483647,0,0,1,1,2,2,3,3,4,4,5,5,6,6],"right_children":[2,4,6,8,10,12,14,-1,-1,-1,-1,-1,-1,-1,-1],"split_conditions":[6.21761E0,5E0,4E0,1E0,1E0,1.2021249E1,1E0,-1.1800035E0,-6.9017166E-1,-5.155407E-1,-1.2212117E-1,-4.3312302E-1,5.235524E-2,1.6255198E-1,7.1921337E-1],"split_indices":[0,3,3,4,4,0,1,0,0,0,0,0,0,0,0],"split_type":[0,0,0,0,0,0,0,0,0,0,0,0,0,0,0],"sum_hessian":[4E2,1.22E2,2.78E2,4.7E1,7.5E1,9.1E1,1.87E2,2.3E1,2.4E1,3.8E1,3.7E1,3.8E1,5.3E1,9.2E1,9.5E1],"tree_param":{"num_deleted":"0","num_feature":"6","num_nodes":"15","size_leaf_vector":"1"}},{"base_weights":[-1.5611901E-2,-9.22382E0,5.702451E0,-1.3947699E1,-9.402425E-1,2.768786E0,1.5484228E1,-9.1629833E-1,-4.5026064E-1,-2.4721959E-1,2.1914223E-1,-1.349928E-1,3.7601647E-1,5.9081113E-1,1.1387559E0],"categories":[],"categories_nodes":[],"categories_segments":[],"categories_sizes":[],"default_left":[0,0,0,0,0,0,0,0,0,0,0,0,0,0,0],"id":12,"left_children":[1,3,5,7,9,11,13,-1,-1,-1,-1,-1,-1,-1,-1],"loss_changes":[2.1166498E4,6.012999E3,7.073849E3,1.9556465E3,1.2365933E3,5.009326E3,1.2552363E3,0E0,0E0,0E0,0E0,0E0,0E0,0E0,0E0],"parents":[2147483647,0,0,1,1,2,2,3,3,4,4,5,5,6,6],"right_children":[2,4,6,8,10,12,14,-1,-1,-1,-1,-1,-1,-1,-1],"split_conditions":[7.7982807E0,7E0,8E0,1E0,1E0,1E0,1.6732632E1,-9.1629833E-1,-4.5026064E-1,-2.4721959E-1,2.1914223E-1,-1.349928E-1,3.7601647E-1,5.9081113E-1,1.1387559E0],"split_indices":[0,3,3,4,1,4,0,0,0,0,0,0,0,0,0],"split_type":[0,0,0,0,0,0,0,0,0,0,0,0,0,0,0],"sum_hessian":[4E2,1.53E2,2.47E2,9.7E1,5.6E1,1.91E2,5.6E1,5E1,4.7E1,3.2E1,2.4E1,8.9E1,1.02E2,3.9E1,1.7E1],"tree_param":{"num_deleted":"0","num_feature":"6","num_nodes":"15","size_leaf_vector":"1"}},{"base_weights":[-1.339365E-2,-6.1196194E0,7.987945E0,-1.1666576E1,-1.6772334E-1,3.3121521E0,1.3835215E1,-8.55172E-1,-3.239999E-1,-3.449236E-1,3.1649005E-1,-1.1792413E-2,4.852646E-1,2.2799344E-1,8.3975357E-1],"categories":[],"categories_nodes":[],"categories_segments":[],"categories_sizes":[],"default_left":[0,0,0,0,0,0,0,0,0,0,0,0,0,0,0],"id":13,"left_children":[1,3,5,7,9,11,13,-1,-1,-1,-1,-1,-1,-1,-1],"loss_changes":[1.9640934E4,7.5254414E3,4.7114443E3,3.2166191E3,4.898052E3,2.2252092E3,2.0373506E3,0E0,0E0,0E0,0E0,0E0,0E0,0E0,0E0],"parents":[2147483647,0,0,1,1,2,2,3,3,4,4,5,5,6,6],"right_children":[2,4,6,8,10,12,14,-1,-1,-1,-1,-1,-1,-1,-1],"split_conditions":[1.187569E1,6E0,1E0,1E0,1E0,1.7608774E1,4E0,-8.55172E-1,-3.239999E-1,-3.449236E-1,3.1649005E-1,-1.1792413E-2,4.852646E-1,2.2799344E-1,8.3975357E-1],"split_indices":[0,3,1,1,4,0,3,0,0,0,0,0,0,0,0],"split_type":[0,0,0,0,0,0,0,0,0,0,0,0,0,0,0],"sum_hessian":[4E2,2.27E2,1.73E2,1.17E2,1.1E2,9.7E1,7.6E1,5.6E1,6.1E1,5.4E1,5.6E1,6.3E1,3.4E1,1.9E1,5.7E1],"tree_param":{"num_deleted":"0","num_feature":"6","num_nodes":"15","size_leaf_vector":"1"}},{"base_weights":[-1.1892066E-2,-1.0102833E1,4.436845E0,-1.6809662E1,-5.734009E0,-2.845705E0,7.9770455E0,-1.0806626E0,-6.1365235E-1,-4.4216165E-1,-9.195552E-2,-3.521817E-1,6.6172674E-2,1.4250417E-1,6.430348E-1],"categories":[],"categories_nodes":[],"categories_segments":[],"categories_sizes":[],"default_left":[0,0,0,0,0,0,0,0,0,0,0,0,0,0,0],"id":14,"left_children":[1,3,5,7,9,11,13,-1,-1,-1,-1,-1,-1,-1,-1],"loss_changes":[1.8046494E4,3.50763E3,7.215791E3,7.807578E2,9.04105E2,1.6194905E3,4.670546E3,0E0,0E0,0E0,0E0,0E0,0E0,0E0,0E0],"parents":[2147483647,0,0,1,1,2,2,3,3,4,4,5,5,6,6],"right_children":[2,4,6,8,10,12,14,-1,-1,-1,-1,-1,-1,-1,-1],"split_conditions":[6.21761E0,5E0,4E0,1E0,1E0,1E0,1E0,-1.0806626E0,-6.1365235E-1,-4.4216165E-1,-9.195552E-2,-3.521817E-1,6.6172674E-2,1.4250417E-1,6.430348E-1],"split_indices":[0,3,3,2,1,4,1,0,0,0,0,0,0,0,0],"split_type":[0,0,0,0,0,0,0,0,0,0,0,0,0,0,0],"sum_hessian":[4E2,1.22E2,2.78E2,4.7E1,7.5E1,9.1E1,1.87E2,2.1E1,2.6E1,4.1E1,3.4E1,4.5E1,4.6E1,9.2E1,9.5E1],"tree_param":{"num_deleted":"0","num_feature":"6","num_nodes":"15","size_leaf_vector":"1"}},{"base_weights":[-1.5608371E-2,-5.659832E0,7.3803606E0,-1.1300805E1,-3.0552775E-1,2.1655707E0,1.20047865E1,-8.173236E-1,-3.204137E-1,-4.5946082E-1,1.9329503E-1,-4.4652175E-2,3.5340723E-1,3.88089E-1,8.546681E-1],"categories":[],"categories_nodes":[],"categories_segments":[],"categories_sizes":[],"default_left":[0,0,0,0,0,0,0,0,0,0,0,0,0,0,0],"id":15,"left_children":[1,3,5,7,9,11,13,-1,-1,-1,-1,-1,-1,-1,-1],"loss_changes":[1.6781316E4,6.882942E3,4.170084E3,2.6354033E3,4.4083296E3,1.2509042E3,1.8536836E3,0E0,0E0,0E0,0E0,0E0,0E0,0E0,0E0],"parents":[2147483647,0,0,1,1,2,2,3,3,4,4,5,5,6,6],"right_children":[2,4,6,8,10,12,14,-1,-1,-1,-1,-1,-1,-1,-1],"split_conditions":[1.187569E1,1E0,5E0,1E0,3.2480223E0,1E0,1.6526272E1,-8.173236E-1,-3.204137E-1,-4.5946082E-1,1.9329503E-1,-4.4652175E-2,3.5340723E-1,3.88089E-1,8.546681E-1],"split_indices":[0,4,3,1,0,1,0,0,0,0,0,0,0,0,0],"split_type":[0,0,0,0,0,0,0,0,0,0,0,0,0,0,0],"sum_hessian":[4E2,2.27E2,1.73E2,1.1E2,1.17E2,8.2E1,9.1E1,5.3E1,5.7E1,3.7E1,8E1,5.1E1,3.1E1,5.1E1,4E1],"tree_param":{"num_deleted":"0","num_feature":"6","num_nodes":"15","size_leaf_vector":"1"}},{"base_weights":[-1.4461232E-2,-4.8831244E0,7.7440825E0,-8.704373E0,2.5021315E0,2.5923448E0,1.2418604E1,-6.7554206E-1,-2.1219027E-1,-1.9074908E-1,3.7255257E-1,-4.5066543E-2,3.305435E-1,4.2227474E-1,8.34612E-1],"categories":[],"categories_nodes":[],"categories_segments":[],"categories_sizes":[],"default_left":[0,0,0,0,0,0,0,0,0,0,0,0,0,0,0],"id":16,"left_children":[1,3,5,7,9,11,13,-1,-1,-1,-1,-1,-1,-1,-1],"loss_changes":[1.5185083E4,6.992342E3,3.700502E3,3.4373125E3,2.6857708E3,1.0589153E3,1.234375E3,0E0,0E0,0E0,0E0,0E0,0E0,0E0,0E0],"parents":[2147483647,0,0,1,1,2,2,3,3,4,4,5,5,6,6],"right_children":[2,4,6,8,10,12,14,-1,-1,-1,-1,-1,-1,-1,-1],"split_conditions":[1.2764385E1,7E0,5E0,1E0,1E0,1E0,1E0,-6.7554206E-1,-2.1219027E-1,-1.9074908E-1,3.7255257E-1,-4.5066543E-2,3.305435E-1,4.2227474E-1,8.34612E-1],"split_indices":[0,3,3,4,4,4,4,0,0,0,0,0,0,0,0],"split_type":[0,0,0,0,0,0,0,0,0,0,0,0,0,0,0],"sum_hessian":[4E2,2.46E2,1.54E2,1.62E2,8.4E1,7.4E1,8E1,7.7E1,8.5E1,3.7E1,4.7E1,4E1,3.4E1,4.3E1,3.7E1],"tree_param":{"num_deleted":"0","num_feature":"6","num_nodes":"15","size_leaf_vector":"1"}},{"base_weights":[-1.1651489E-2,-8.979085E0,3.9417748E0,-1.512484E1,-4.9794097E0,6.472062E-1,1.0316022E1,-9.821172E-1,-5.4418665E-1,-3.9643404E-1,-6.490081E-2,-2.10271E-1,2.3185706E-1,2.7530715E-1,8.2583445E-1],"categories":[],"categories_nodes":[],"categories_segments":[],"categories_sizes":[],"default_left":[0,0,0,0,0,0,0,0,0,0,0,0,0,0,0],"id":17,"left_children":[1,3,5,7,9,11,13,-1,-1,-1,-1,-1,-1,-1,-1],"loss_changes":[1.4251681E4,2.9481543E3,5.8524336E3,7.058594E2,8.148729E2,3.601409E3,2.7423809E3,0E0,0E0,0E0,0E0,0E0,0E0,0E0,0E0],"parents":[2147483647,0,0,1,1,2,2,3,3,4,4,5,5,6,6],"right_children":[2,4,6,8,10,12,14,-1,-1,-1,-1,-1,-1,-1,-1],"split_conditions":[6.21761E0,5E0,7E0,1E0,1E0,1.2764385E1,1E0,-9.821172E-1,-5.4418665E-1,-3.9643404E-1,-6.490081E-2,-2.10271E-1,2.3185706E-1,2.7530715E-1,8.2583445E-1],"split_indices":[0,3,3,2,1,0,2,0,0,0,0,0,0,0,0],"split_type":[0,0,0,0,0,0,0,0,0,0,0,0,0,0,0],"sum_hessian":[4E2,1.22E2,2.78E2,4.7E1,7.5E1,1.84E2,9.4E1,2.1E1,2.6E1,4.1E1,3.4E1,8.3E1,1.01E2,5.4E1,4E1],"tree_param":{"num_deleted":"0","num_feature":"6","num_nodes":"15","size_leaf_vector":"1"}},{"base_weights":[-1.3225551E-2,-9.836757E0,3.2830863E0,-1.5294045E1,-5.6926856E0,7.662556E-1,1.0993279E1,-9.586076E-1,-5.360378E-1,-3.880999E-1,1.768582E-2,-1.9736014E-1,2.4834883E-1,4.1749883E-1,9.3765E-1],"categories":[],"categories_nodes":[],"categories_segments":[],"categories_sizes":[],"default_left":[0,0,0,0,0,0,0,0,0,0,0,0,0,0,0],"id":18,"left_children":[1,3,5,7,9,11,13,-1,-1,-1,-1,-1,-1,-1,-1],"loss_changes":[1.3017244E4,2.1970889E3,5.8325566E3,5.570957E2,7.4094763E2,4.5339883E3,1.361249E3,0E0,0E0,0E0,0E0,0E0,0E0,0E0,0E0],"parents":[2147483647,0,0,1,1,2,2,3,3,4,4,5,5,6,6],"right_children":[2,4,6,8,10,12,14,-1,-1,-1,-1,-1,-1,-1,-1],"split_conditions":[5.257798E0,5E0,8E0,1E0,3E0,1E0,1.6732632E1,-9.586076E-1,-5.360378E-1,-3.880999E-1,1.768582E-2,-1.9736014E-1,2.4834883E-1,4.1749883E-1,9.3765E-1],"split_indices":[0,3,3,4,5,4,0,0,0,0,0,0,0,0,0],"split_type":[0,0,0,0,0,0,0,0,0,0,0,0,0,0,0],"sum_hessian":[4E2,1E2,3E2,4.2E1,5.8E1,2.27E2,7.3E1,2.1E1,2.1E1,4.3E1,1.5E1,1.07E2,1.2E2,5.6E1,1.7E1],"tree_param":{"num_deleted":"0","num_feature":"6","num_nodes":"15","size_leaf_vector":"1"}},{"base_weights":[-1.3710131E-2,-4.171247E0,7.198437E0,-9.133683E0,1.6963728E-1,2.39841E0,1.1651114E1,-7.969784E-1,-3.381785E-1,-2.4797967E-1,2.8812957E-1,-4.384316E-2,3.6425433E-1,3.9318576E-1,7.9315525E-1],"categories":[],"categories_nodes":[],"categories_segments":[],"categories_sizes":[],"default_left":[0,0,0,0,0,0,0,0,0,0,0,0,0,0,0],"id":19,"left_children":[1,3,5,7,9,11,13,-1,-1,-1,-1,-1,-1,-1,-1],"loss_changes":[1.2053919E4,5.4945957E3,3.1138828E3,1.811749E3,3.9587744E3,1.1587625E3,1.0876475E3,0E0,0E0,0E0,0E0,0E0,0E0,0E0,0E0],"parents":[2147483647,0,0,1,1,2,2,3,3,4,4,5,5,6,6],"right_children":[2,4,6,8,10,12,14,-1,-1,-1,-1,-1,-1,-1,-1],"split_conditions":[1.2932371E1,1E0,5E0,3E0,6E0,1E0,1E0,-7.969784E-1,-3.381785E-1,-2.4797967E-1,2.8812957E-1,-4.384316E-2,3.6425433E-1,3.9318576E-1,7.9315525E-1],"split_indices":[0,4,3,3,3,1,4,0,0,0,0,0,0,0,0],"split_type":[0,0,0,0,0,0,0,0,0,0,0,0,0,0,0],"sum_hessian":[4E2,2.54E2,1.46E2,1.18E2,1.36E2,7.1E1,7.5E1,2.9E1,8.9E1,7.1E1,6.5E1,4.3E1,2.8E1,4.1E1,3.4E1],"tree_param":{"num_deleted":"0","num_feature":"6","num_nodes":"15","size_leaf_vector":"1"}},{"base_weights":[-1.1997941E-2,-6.737667E0,4.164474E0,-1.2645203E1,-2.935669E0,-1.7373216E-1,8.7192335E0,-8.084904E-1,-4.0197954E-1,-3.1407523E-1,5.4260995E-2,-2.5753492E-1,2.1467271E-1,2.8920376E-1,7.7444E-1],"categories":[],"categories_nodes":[],"categories_segments":[],"categories_sizes":[],"default_left":[0,0,0,0,0,0,0,0,0,0,0,0,0,0,0],"id":20,"left_children":[1,3,5,7,9,11,13,-1,-1,-1,-1,-1,-1,-1,-1],"loss_changes":[1.1291976E4,3.4217847E3,4.901867E3,8.439785E2,1.2848739E3,2.8679424E3,2.3146504E3,0E0,0E0,0E0,0E0,0E0,0E0,0E0,0E0],"parents":[2147483647,0,0,1,1,2,2,3,3,4,4,5,5,6,6],"right_children":[2,4,6,8,10,12,14,-1,-1,-1,-1,-1,-1,-1,-1],"split_conditions":[7.7982807E0,5E0,1E0,1E0,1E0,1.4091807E1,7E0,-8.084904E-1,-4.0197954E-1,-3.1407523E-1,5.4260995E-2,-2.5753492E-1,2.1467271E-1,2.8920376E-1,7.7444E-1],"split_indices":[0,3,2,1,1,0,3,0,0,0,0,0,0,0,0],"split_type":[0,0,0,0,0,0,0,0,0,0,0,0,0,0,0],"sum_hessian":[4E2,1.53E2,2.47E2,5.9E1,9.4E1,1.27E2,1.2E2,3.2E1,2.7E1,5.1E1,4.3E1,6E1,6.7E1,8.5E1,3.5E1],"tree_param":{"num_deleted":"0","num_feature":"6","num_nodes":"15","size_leaf_vector":"1"}},{"base_weights":[-1.2519879E-2,-8.778702E0,2.928998E0,-1.5878707E1,-6.234243E0,-1.0211531E0,7.0741982E0,-9.372453E-1,-4.7091508E-1,-4.0850505E-1,-2.0266732E-2,-1.8189773E-1,3.565788E-1,1.1522294E-3,5.092388E-1],"categories":[],"categories_nodes":[],"categories_segments":[],"categories_sizes":[],"default_left":[0,0,0,0,0,0,0,0,0,0,0,0,0,0,0],"id":21,"left_children":[1,3,5,7,9,11,13,-1,-1,-1,-1,-1,-1,-1,-1],"loss_changes":[1.0365851E4,1.7256411E3,4.9358486E3,3.048921E2,8.542678E2,3.3327253E3,3.223939E3,0E0,0E0,0E0,0E0,0E0,0E0,0E0,0E0],"parents":[2147483647,0,0,1,1,2,2,3,3,4,4,5,5,6,6],"right_children":[2,4,6,8,10,12,14,-1,-1,-1,-1,-1,-1,-1,-1],"split_conditions":[5.257798E0,3E0,1E0,1E0,3E0,1.7390434E1,4E0,-9.372453E-1,-4.7091508E-1,-4.0850505E-1,-2.0266732E-2,-1.8189773E-1,3.565788E-1,1.1522294E-3,5.092388E-1],"split_indices":[0,3,1,1,5,0,3,0,0,0,0,0,0,0,0],"split_type":[0,0,0,0,0,0,0,0,0,0,0,0,0,0,0],"sum_hessian":[4E2,1E2,3E2,2.5E1,7.5E1,1.54E2,1.46E2,1.6E1,9E0,5.6E1,1.9E1,1.17E2,3.7E1,4.5E1,1.01E2],"tree_param":{"num_deleted":"0","num_feature":"6","num_nodes":"15","size_leaf_vector":"1"}},{"base_weights":[-1.4765309E-2,-6.1542892E0,3.7977405E0,-9.5080185E0,-2.8025785E-1,-3.121913E-1,8.114051E0,-5.8625203E-1,-1.2826562E-1,-1.7338683E-1,1.9692121E-1,-2.9082307E-1,1.587738E-1,2.6828912E-1,7.226984E-1],"categories":[],"categories_nodes":[],"categories_segments":[],"categories_sizes":[],"default_left":[0,0,0,0,0,0,0,0,0,0,0,0,0,0,0],"id":22,"left_children":[1,3,5,7,9,11,13,-1,-1,-1,-1,-1,-1,-1,-1],"loss_changes":[9.409566E3,3.031121E3,4.4019883E3,1.4783506E3,7.801341E2,2.4756936E3,2.0307222E3,0E0,0E0,0E0,0E0,0E0,0E0,0E0,0E0],"parents":[2147483647,0,0,1,1,2,2,3,3,4,4,5,5,6,6],"right_children":[2,4,6,8,10,12,14,-1,-1,-1,-1,-1,-1,-1,-1],"split_conditions":[7.7982807E0,7E0,1E0,3E0,1E0,1.2704268E1,7E0,-5.8625203E-1,-1.2826562E-1,-1.7338683E-1,1.9692121E-1,-2.9082307E-1,1.587738E-1,2.6828912E-1,7.226984E-1],"split_indices":[0,3,2,5,1,0,3,0,0,0,0,0,0,0,0],"split_type":[0,0,0,0,0,0,0,0,0,0,0,0,0,0,0],"sum_hessian":[4E2,1.53E2,2.47E2,9.7E1,5.6E1,1.27E2,1.2E2,7.3E1,2.4E1,3.2E1,2.4E1,4.9E1,7.8E1,8.5E1,3.5E1],"tree_param":{"num_deleted":"0","num_feature":"6","num_nodes":"15","size_leaf_vector":"1"}},{"base_weights":[-1.3608781E-2,-8.343879E0,2.5642064E0,-1.473184E1,-5.9770775E0,-1.3643069E0,6.375551E0,-8.8633585E-1,-4.2334256E-1,-4.5697305E-1,-1.4120454E-1,-3.1254438E-1,1.2292721E-1,2.3758918E-2,4.5365754E-1],"categories":[],"categories_nodes":[],"categories_segments":[],"categories_sizes":[],"default_left":[0,0,0,0,0,0,0,0,0,0,0,0,0,0,0],"id":23,"left_children":[1,3,5,7,9,11,13,-1,-1,-1,-1,-1,-1,-1,-1],"loss_changes":[8.632428E3,1.3482554E3,4.605385E3,3.1898193E2,6.821267E2,2.8548298E3,2.4787158E3,0E0,0E0,0E0,0E0,0E0,0E0,0E0,0E0],"parents":[2147483647,0,0,1,1,2,2,3,3,4,4,5,5,6,6],"right_children":[2,4,6,8,10,12,14,-1,-1,-1,-1,-1,-1,-1,-1],"split_conditions":[4.8732514E0,3E0,1E0,1E0,1E0,1.215905E1,4E0,-8.8633585E-1,-4.2334256E-1,-4.5697305E-1,-1.4120454E-1,-3.1254438E-1,1.2292721E-1,2.3758918E-2,4.5365754E-1],"split_indices":[0,3,4,1,4,0,3,0,0,0,0,0,0,0,0],"split_type":[0,0,0,0,0,0,0,0,0,0,0,0,0,0,0],"sum_hessian":[4E2,9.4E1,3.06E2,2.4E1,7E1,1.51E2,1.55E2,1.5E1,9E0,3.4E1,3.6E1,6.6E1,8.5E1,4.9E1,1.06E2],"tree_param":{"num_deleted":"0","num_feature":"6","num_nodes":"15","size_leaf_vector":"1"}},{"base_weights":[-1.6967893E-2,-3.392741E0,5.839081E0,-7.7123785E0,3.8411722E-1,1.6994449E0,1.0127598E1,-5.5243236E-1,-2.066149E-1,-1.9896077E-1,2.5691482E-1,-5.5150952E-2,4.8007473E-1,1.0302533E-1,5.935084E-1],"categories":[],"categories_nodes":[],"categories_segments":[],"categories_sizes":[],"default_left":[0,0,0,0,0,0,0,0,0,0,0,0,0,0,0],"id":24,"left_children":[1,3,5,7,9,11,13,-1,-1,-1,-1,-1,-1,-1,-1],"loss_changes":[7.947056E3,4.1632E3,2.5924648E3,1.3756924E3,2.8623828E3,1.6936266E3,9.876797E2,0E0,0E0,0E0,0E0,0E0,0E0,0E0,0E0],"parents":[2147483647,0,0,1,1,2,2,3,3,4,4,5,5,6,6],"right_children":[2,4,6,8,10,12,14,-1,-1,-1,-1,-1,-1,-1,-1],"split_conditions":[1.2932371E1,1E0,1E0,1E0,6E0,3E0,3E0,-5.5243236E-1,-2.066149E-1,-1.9896077E-1,2.5691482E-1,-5.5150952E-2,4.8007473E-1,1.0302533E-1,5.935084E-1],"split_indices":[0,4,1,1,3,5,3,0,0,0,0,0,0,0,0],"split_type":[0,0,0,0,0,0,0,0,0,0,0,0,0,0,0],"sum_hessian":[4E2,2.54E2,1.46E2,1.18E2,1.36E2,7.5E1,7.1E1,6E1,5.8E1,7.1E1,6.5E1,5.6E1,1.9E1,1.3E1,5.8E1],"tree_param":{"num_deleted":"0","num_feature":"6","num_nodes":"15","size_leaf_vector":"1"}},{"base_weights":[-1.5070903E-2,-7.1643333E0,2.5781026E0,-1.1671696E1,-3.8310697E0,4.386945E-1,9.198232E0,-7.778174E-1,-3.9708596E-1,-3.2797417E-1,-2.0302577E-2,-1.0238725E-1,3.276206E-1,2.8341958E-1,6.599046E-1],"categories":[],"categories_nodes":[],"categories_segments":[],"categories_sizes":[],"default_left":[0,0,0,0,0,0,0,0,0,0,0,0,0,0,0],"id":25,"left_children":[1,3,5,7,9,11,13,-1,-1,-1,-1,-1,-1,-1,-1],"loss_changes":[7.452721E3,1.562877E3,4.174096E3,5.284907E2,5.8606305E2,3.4185283E3,9.417466E2,0E0,0E0,0E0,0E0,0E0,0E0,0E0,0E0],"parents":[2147483647,0,0,1,1,2,2,3,3,4,4,5,5,6,6],"right_children":[2,4,6,8,10,12,14,-1,-1,-1,-1,-1,-1,-1,-1],"split_conditions":[5.54621E0,5E0,8E0,1E0,2.97768E0,3E0,1E0,-7.778174E-1,-3.9708596E-1,-3.2797417E-1,-2.0302577E-2,-1.0238725E-1,3.276206E-1,2.8341958E-1,6.599046E-1],"split_indices":[0,3,3,2,0,5,4,0,0,0,0,0,0,0,0],"split_type":[0,0,0,0,0,0,0,0,0,0,0,0,0,0,0],"sum_hessian":[4E2,1.06E2,2.94E2,4.4E1,6.2E1,2.23E2,7.1E1,2E1,2.4E1,3.4E1,2.8E1,1.59E2,6.4E1,3.9E1,3.2E1],"tree_param":{"num_deleted":"0","num_feature":"6","num_nodes":"15","size_leaf_vector":"1"}},{"base_weights":[-1.520203E-2,-3.1697838E0,5.457135E0,-7.2176027E0,3.693419E-1,1.5409788E0,9.515062E0,-4.427403E-1,-3.537641E-2,-1.8138014E-1,2.3620243E-1,-1.3252729E-1,3.2633904E-1,9.8388344E-2,5.572337E-1],"categories":[],"categories_nodes":[],"categories_segments":[],"categories_sizes":[],"default_left":[0,0,0,0,0,0,0,0,0,0,0,0,0,0,0],"id":26,"left_children":[1,3,5,7,9,11,13,-1,-1,-1,-1,-1,-1,-1,-1],"loss_changes":[6.939735E3,3.655729E3,2.3213848E3,1.2620747E3,2.4016934E3,1.6055559E3,8.636089E2,0E0,0E0,0E0,0E0,0E0,0E0,0E0,0E0],"parents":[2147483647,0,0,1,1,2,2,3,3,4,4,5,5,6,6],"right_children":[2,4,6,8,10,12,14,-1,-1,-1,-1,-1,-1,-1,-1],"split_conditions":[1.2932371E1,1E0,1E0,8E0,6E0,1.7608774E1,3E0,-4.427403E-1,-3.537641E-2,-1.8138014E-1,2.3620243E-1,-1.3252729E-1,3.2633904E-1,9.8388344E-2,5.572337E-1],"split_indices":[0,4,1,3,3,0,3,0,0,0,0,0,0,0,0],"split_type":[0,0,0,0,0,0,0,0,0,0,0,0,0,0,0],"sum_hessian":[4E2,2.54E2,1.46E2,1.18E2,1.36E2,7.5E1,7.1E1,9.4E1,2.4E1,7.1E1,6.5E1,4.1E1,3.4E1,1.3E1,5.8E1],"tree_param":{"num_deleted":"0","num_feature":"6","num_nodes":"15","size_leaf_vector":"1"}},{"base_weights":[-1.3379361E-2,-5.095097E0,3.1422572E0,-7.885516E0,-2.0814654E-1,-6.715066E-1,7.150683E0,-4.9259526E-1,-8.7479316E-2,-1.5808852E-1,1.8494815E-1,-1.4258881E-1,3.2728833E-1,1.6277985E-1,5.34248E-1],"categories":[],"categories_nodes":[],"categories_segments":[],"categories_sizes":[],"default_left":[0,0,0,0,0,0,0,0,0,0,0,0,0,0,0],"id":27,"left_children":[1,3,5,7,9,11,13,-1,-1,-1,-1,-1,-1,-1,-1],"loss_changes":[6.446468E3,2.0984011E3,3.7960251E3,1.1651948E3,6.694827E2,2.0328239E3,1.6309375E3,0E0,0E0,0E0,0E0,0E0,0E0,0E0,0E0],"parents":[2147483647,0,0,1,1,2,2,3,3,4,4,5,5,6,6],"right_children":[2,4,6,8,10,12,14,-1,-1,-1,-1,-1,-1,-1,-1],"split_conditions":[7.7982807E0,7E0,1E0,3E0,1E0,8E0,1E0,-4.9259526E-1,-8.7479316E-2,-1.5808852E-1,1.8494815E-1,-1.4258881E-1,3.2728833E-1,1.6277985E-1,5.34248E-1],"split_indices":[0,3,2,5,1,3,1,0,0,0,0,0,0,0,0],"split_type":[0,0,0,0,0,0,0,0,0,0,0,0,0,0,0],"sum_hessian":[4E2,1.53E2,2.47E2,9.7E1,5.6E1,1.27E2,1.2E2,7.3E1,2.4E1,3.2E1,2.4E1,9.8E1,2.9E1,5.8E1,6.2E1],"tree_param":{"num_deleted":"0","num_feature":"6","num_nodes":"15","size_leaf_vector":"1"}},{"base_weights":[-1.1892219E-2,-6.9093723E0,2.122546E0,-1.2487316E1,-4.8479924E0,-7.5130686E-2,7.863244E0,-7.646998E-1,-3.3739486E-1,-3.2491928E-1,5.446183E-4,-3.6202586E-1,9.658034E-2,2.935339E-1,8.044634E-1],"categories":[],"categories_nodes":[],"categories_segments":[],"categories_sizes":[],"default_left":[0,0,0,0,0,0,0,0,0,0,0,0,0,0,0],"id":28,"left_children":[1,3,5,7,9,11,13,-1,-1,-1,-1,-1,-1,-1,-1],"loss_changes":[5.9182856E3,1.0317964E3,3.8737637E3,2.9951562E2,5.694247E2,3.220514E3,1.2987715E3,0E0,0E0,0E0,0E0,0E0,0E0,0E0,0E0],"parents":[2147483647,0,0,1,1,2,2,3,3,4,4,5,5,6,6],"right_children":[2,4,6,8,10,12,14,-1,-1,-1,-1,-1,-1,-1,-1],"split_conditions":[4.8732514E0,3E0,3E0,1E0,3E0,3E0,1.787729E1,-7.646998E-1,-3.3739486E-1,-3.2491928E-1,5.446183E-4,-3.6202586E-1,9.658034E-2,2.935339E-1,8.044634E-1],"split_indices":[0,3,5,1,5,3,0,0,0,0,0,0,0,0,0],"split_type":[0,0,0,0,0,0,0,0,0,0,0,0,0,0,0],"sum_hessian":[4E2,9.4E1,3.06E2,2.4E1,7E1,2.22E2,8.4E1,1.5E1,9E0,5.2E1,1.8E1,4.8E1,1.74E2,6.9E1,1.5E1],"tree_param":{"num_deleted":"0","num_feature":"6","num_nodes":"15","size_leaf_vector":"1"}},{"base_weights":[-1.2778922E-2,-2.852546E0,4.9134345E0,-6.613111E0,4.3475157E-1,1.2884918E0,8.671521E0,-4.811871E-1,-1.6941689E-1,-1.5996711E-1,2.1963151E-1,-1.3229813E-1,2.9865116E-1,9.631364E-2,5.062557E-1],"categories":[],"categories_nodes":[],"categories_segments":[],"categories_sizes":[],"default_left":[0,0,0,0,0,0,0,0,0,0,0,0,0,0,0],"id":29,"left_children":[1,3,5,7,9,11,13,-1,-1,-1,-1,-1,-1,-1,-1],"loss_changes":[5.6237246E3,3.1552097E3,1.9913857E3,1.1227153E3,1.9845658E3,1.4165659E3,6.8644434E2,0E0,0E0,0E0,0E0,0E0,0E0,0E0,0E0],"parents":[2147483647,0,0,1,1,2,2,3,3,4,4,5,5,6,6],"right_children":[2,4,6,8,10,12,14,-1,-1,-1,-1,-1,-1,-1,-1],"split_conditions":[1.2932371E1,1E0,1E0,1E0,6E0,1.7608774E1,3E0,-4.811871E-1,-1.6941689E-1,-1.5996711E-1,2.1963151E-1,-1.3229813E-1,2.9865116E-1,9.631364E-2,5.062557E-1],"split_indices":[0,4,1,1,3,0,3,0,0,0,0,0,0,0,0],"split_type":[0,0,0,0,0,0,0,0,0,0,0,0,0,0,0],"sum_hessian":[4E2,2.54E2,1.46E2,1.18E2,1.36E2,7.5E1,7.1E1,6E1,5.8E1,7.1E1,6.5E1,4.1E1,3.4E1,1.3E1,5.8E1],"tree_param":{"num_deleted":"0","num_feature":"6","num_nodes":"15","size_leaf_vector":"1"}},{"base_weights":[-1.1696803E-2,-6.4139314E0,1.9694887E0,-1.1636695E1,-4.484593E0,-1.08044066E-1,7.3967867E0,-7.966382E-1,-3.8552323E-1,-3.0176076E-1,3.842916E-3,-3.405231E-1,8.846251E-2,2.7762935E-1,7.5014323E-1],"categories":[],"categories_nodes":[],"categories_segments":[],"categories_sizes":[],"default_left":[0,0,0,0,0,0,0,0,0,0,0,0,0,0,0],"id":30,"left_children":[1,3,5,7,9,11,13,-1,-1,-1,-1,-1,-1,-1,-1],"loss_changes":[5.0989224E3,9.0507935E2,3.4623438E3,2.9883472E2,5.0265295E2,2.8179265E3,1.109002E3,0E0,0E0,0E0,0E0,0E0,0E0,0E0,0E0],"parents":[2147483647,0,0,1,1,2,2,3,3,4,4,5,5,6,6],"right_children":[2,4,6,8,10,12,14,-1,-1,-1,-1,-1,-1,-1,-1],"split_conditions":[4.8732514E0,3E0,3E0,1E0,3E0,3E0,1.787729E1,-7.966382E-1,-3.8552323E-1,-3.0176076E-1,3.842916E-3,-3.405231E-1,8.846251E-2,2.7762935E-1,7.5014323E-1],"split_indices":[0,3,5,2,5,3,0,0,0,0,0,0,0,0,0],"split_type":[0,0,0,0,0,0,0,0,0,0,0,0,0,0,0],"sum_hessian":[4E2,9.4E1,3.06E2,2.4E1,7E1,2.22E2,8.4E1,1E1,1.4E1,5.2E1,1.8E1,4.8E1,1.74E2,6.9E1,1.5E1],"tree_param":{"num_deleted":"0","num_feature":"6","num_nodes":"15","size_leaf_vector":"1"}},{"base_weights":[-1.28682675E-2,-2.6478212E0,4.558056E0,-6.184892E0,4.4385216E-1,9.107423E-1,7.953431E0,-3.553289E-1,1.7552182E-1,-1.419037E-1,2.1719308E-1,-8.750991E-2,2.4583133E-1,2.3245671E-1,5.8456737E-1],"categories":[],"categories_nodes":[],"categories_segments":[],"categories_sizes":[],"default_left":[0,0,0,0,0,0,0,0,0,0,0,0,0,0,0],"id":31,"left_children":[1,3,5,7,9,11,13,-1,-1,-1,-1,-1,-1,-1,-1],"loss_changes":[4.8417812E3,2.791289E3,1.8132048E3,1.0883369E3,1.7658656E3,7.760832E2,8.8433496E2,0E0,0E0,0E0,0E0,0E0,0E0,0E0,0E0],"parents":[2147483647,0,0,1,1,2,2,3,3,4,4,5,5,6,6],"right_children":[2,4,6,8,10,12,14,-1,-1,-1,-1,-1,-1,-1,-1],"split_conditions":[1.2932371E1,1E0,5E0,9E0,1E0,1E0,1E0,-3.553289E-1,1.7552182E-1,-1.419037E-1,2.1719308E-1,-8.750991E-2,2.4583133E-1,2.3245671E-1,5.8456737E-1],"split_indices":[0,4,3,3,1,1,4,0,0,0,0,0,0,0,0],"split_type":[0,0,0,0,0,0,0,0,0,0,0,0,0,0,0],"sum_hessian":[4E2,2.54E2,1.46E2,1.18E2,1.36E2,7.1E1,7.5E1,1.08E2,1E1,7.4E1,6.2E1,4.3E1,2.8E1,4.1E1,3.4E1],"tree_param":{"num_deleted":"0","num_feature":"6","num_nodes":"15","size_leaf_vector":"1"}},{"base_weights":[-1.0053088E-2,-4.227522E0,2.6088996E0,-8.261844E0,-1.6350291E0,-9.042986E-1,6.3037796E0,-6.056526E-1,-2.4802685E-1,-2.1816896E-1,8.132722E-2,-1.4243256E-1,2.7711043E-1,2.0340478E-1,5.7347375E-1],"categories":[],"categories_nodes":[],"categories_segments":[],"categories_sizes":[],"default_left":[0,0,0,0,0,0,0,0,0,0,0,0,0,0,0],"id":32,"left_children":[1,3,5,7,9,11,13,-1,-1,-1,-1,-1,-1,-1,-1],"loss_changes":[4.4402153E3,1.5971699E3,3.2249502E3,7.027534E2,8.5247504E2,1.6201759E3,1.3507539E3,0E0,0E0,0E0,0E0,0E0,0E0,0E0,0E0],"parents":[2147483647,0,0,1,1,2,2,3,3,4,4,5,5,6,6],"right_children":[2,4,6,8,10,12,14,-1,-1,-1,-1,-1,-1,-1,-1],"split_conditions":[7.7982807E0,5E0,1E0,1E0,1E0,8E0,7E0,-6.056526E-1,-2.4802685E-1,-2.1816896E-1,8.132722E-2,-1.4243256E-1,2.7711043E-1,2.0340478E-1,5.7347375E-1],"split_indices":[0,3,2,2,1,3,3,0,0,0,0,0,0,0,0],"split_type":[0,0,0,0,0,0,0,0,0,0,0,0,0,0,0],"sum_hessian":[4E2,1.53E2,2.47E2,5.9E1,9.4E1,1.27E2,1.2E2,2.6E1,3.3E1,5.1E1,4.3E1,9.8E1,2.9E1,8.5E1,3.5E1],"tree_param":{"num_deleted":"0","num_feature":"6","num_nodes":"15","size_leaf_vector":"1"}},{"base_weights":[-9.747284E-3,-3.0837922E0,3.3525403E0,-5.0187373E0,4.3302903E0,-7.409731E-1,6.159865E0,-5.557602E-1,-1.6292618E-1,-1.0546454E-1,3.8669214E-1,-1.825261E-1,1.4178625E-1,1.2970427E-1,4.7789803E-1],"categories":[],"categories_nodes":[],"categories_segments":[],"categories_sizes":[],"default_left":[0,0,0,0,0,0,0,0,0,0,0,0,0,0,0],"id":33,"left_children":[1,3,5,7,9,11,13,-1,-1,-1,-1,-1,-1,-1,-1],"loss_changes":[4.155004E3,3.0343594E3,2.2109934E3,1.7558721E3,9.8068066E2,8.3247144E2,1.3565283E3,0E0,0E0,0E0,0E0,0E0,0E0,0E0,0E0],"parents":[2147483647,0,0,1,1,2,2,3,3,4,4,5,5,6,6],"right_children":[2,4,6,8,10,12,14,-1,-1,-1,-1,-1,-1,-1,-1],"split_conditions":[1E0,1.6282543E1,8.502467E0,3E0,3E0,6E0,1E0,-5.557602E-1,-1.6292618E-1,-1.0546454E-1,3.8669214E-1,-1.825261E-1,1.4178625E-1,1.2970427E-1,4.7789803E-1],"split_indices":[1,0,0,3,3,3,2,0,0,0,0,0,0,0,0],"split_type":[0,0,0,0,0,0,0,0,0,0,0,0,0,0,0],"sum_hessian":[4E2,2.09E2,1.91E2,1.66E2,4.3E1,7.8E1,1.13E2,3.6E1,1.3E2,1.5E1,2.8E1,4.3E1,3.5E1,5.6E1,5.7E1],"tree_param":{"num_deleted":"0","num_feature":"6","num_nodes":"15","size_leaf_vector":"1"}},{"base_weights":[-8.938007E-3,-5.561667E0,1.7093623E0,-1.0169336E1,-3.860915E0,-1.4815142E0,4.807464E0,-7.037192E-1,-3.31384E-1,-2.6395512E-1,1.4914381E-2,-1.7496276E-1,2.033249E-1,1.5137391E-1,5.0348973E-1],"categories":[],"categories_nodes":[],"categories_segments":[],"categories_sizes":[],"default_left":[0,0,0,0,0,0,0,0,0,0,0,0,0,0,0],"id":34,"left_children":[1,3,5,7,9,11,13,-1,-1,-1,-1,-1,-1,-1,-1],"loss_changes":[3.8355505E3,7.052051E2,3.04202E3,2.5247778E2,4.2037012E2,1.7157863E3,1.4307466E3,0E0,0E0,0E0,0E0,0E0,0E0,0E0,0E0],"parents":[2147483647,0,0,1,1,2,2,3,3,4,4,5,5,6,6],"right_children":[2,4,6,8,10,12,14,-1,-1,-1,-1,-1,-1,-1,-1],"split_conditions":[4.8732514E0,3E0,1E0,1E0,3E0,8E0,1.600613E1,-7.037192E-1,-3.31384E-1,-2.6395512E-1,1.4914381E-2,-1.7496276E-1,2.033249E-1,1.5137391E-1,5.0348973E-1],"split_indices":[0,3,4,2,5,3,0,0,0,0,0,0,0,0,0],"split_type":[0,0,0,0,0,0,0,0,0,0,0,0,0,0,0],"sum_hessian":[4E2,9.4E1,3.06E2,2.4E1,7E1,1.51E2,1.55E2,1E1,1.4E1,5.2E1,1.8E1,1.11E2,4E1,1.17E2,3.8E1],"tree_param":{"num_deleted":"0","num_feature":"6","num_nodes":"15","size_leaf_vector":"1"}},{"base_weights":[-9.989256E-3,-2.9217758E0,3.1748292E0,-4.71438E0,3.9483755E0,7.310041E-1,7.2377186E0,-5.183697E-1,-1.5408698E-1,-1.02920376E-1,3.5631558E-1,-1.3666503E-1,1.9818749E-1,2.2419582E-1,5.010385E-1],"categories":[],"categories_nodes":[],"categories_segments":[],"categories_sizes":[],"default_left":[0,0,0,0,0,0,0,0,0,0,0,0,0,0,0],"id":35,"left_children":[1,3,5,7,9,11,13,-1,-1,-1,-1,-1,-1,-1,-1],"loss_changes":[3.7279543E3,2.604861E3,1.9010752E3,1.5093501E3,8.5459247E2,1.3659391E3,5.0687378E2,0E0,0E0,0E0,0E0,0E0,0E0,0E0,0E0],"parents":[2147483647,0,0,1,1,2,2,3,3,4,4,5,5,6,6],"right_children":[2,4,6,8,10,12,14,-1,-1,-1,-1,-1,-1,-1,-1],"split_conditions":[1E0,1.6282543E1,1.2932371E1,3E0,3E0,1E0,1E0,-5.183697E-1,-1.5408698E-1,-1.02920376E-1,3.5631558E-1,-1.3666503E-1,1.9818749E-1,2.2419582E-1,5.010385E-1],"split_indices":[1,0,0,3,3,4,2,0,0,0,0,0,0,0,0],"split_type":[0,0,0,0,0,0,0,0,0,0,0,0,0,0,0],"sum_hessian":[4E2,2.09E2,1.91E2,1.66E2,4.3E1,1.2E2,7.1E1,3.6E1,1.3E2,1.5E1,2.8E1,5.8E1,6.2E1,3.7E1,3.4E1],"tree_param":{"num_deleted":"0","num_feature":"6","num_nodes":"15","size_leaf_vector":"1"}},{"base_weights":[-8.573956E-3,-1.795833E0,4.918996E0,-7.1874795E0,-1.4905126E-1,-1.7254852E0,6.561549E0,-1.5888561E-1,-4.627703E-1,-1.530118E-1,1.4604189E-1,-2.332063E-1,1.5187272E-1,1.7061175E-1,4.7450814E-1],"categories":[],"categories_nodes":[],"categories_segments":[],"categories_sizes":[],"default_left":[0,0,0,0,0,0,0,0,0,0,0,0,0,0,0],"id":36,"left_children":[1,3,5,7,9,11,13,-1,-1,-1,-1,-1,-1,-1,-1],"loss_changes":[3.5403782E3,2.6181938E3,1.1791108E3,5.427307E2,2.0376404E3,3.2209155E2,7.6080615E2,0E0,0E0,0E0,0E0,0E0,0E0,0E0,0E0],"parents":[2147483647,0,0,1,1,2,2,3,3,4,4,5,5,6,6],"right_children":[2,4,6,8,10,12,14,-1,-1,-1,-1,-1,-1,-1,-1],"split_conditions":[3E0,3E0,4.1381164E0,1E0,1.0861415E1,6E0,5E0,-1.5888561E-1,-4.627703E-1,-1.530118E-1,1.4604189E-1,-2.332063E-1,1.5187272E-1,1.7061175E-1,4.7450814E-1],"split_indices":[5,3,0,5,0,3,3,0,0,0,0,0,0,0,0],"split_type":[0,0,0,0,0,0,0,0,0,0,0,0,0,0,0],"sum_hessian":[4E2,2.94E2,1.06E2,6.8E1,2.26E2,2.1E1,8.5E1,2.4E1,4.4E1,1.16E2,1.1E2,1.3E1,8E0,4.2E1,4.3E1],"tree_param":{"num_deleted":"0","num_feature":"6","num_nodes":"15","size_leaf_vector":"1"}},{"base_weights":[-8.3065275E-3,-2.7643688E0,3.0061798E0,-4.442574E0,3.6680095E0,-5.1050764E-1,5.4168124E0,-3.2745442E-1,-3.3735607E-2,-1.9509817E-2,4.0656462E-1,-1.5878052E-1,1.3805105E-1,1.090886E-1,4.2513418E-1],"categories":[],"categories_nodes":[],"categories_segments":[],"categories_sizes":[],"default_left":[0,0,0,0,0,0,0,0,0,0,0,0,0,0,0],"id":37,"left_children":[1,3,5,7,9,11,13,-1,-1,-1,-1,-1,-1,-1,-1],"loss_changes":[3.339863E3,2.2832144E3,1.6304343E3,1.3210696E3,8.001412E2,6.9756573E2,1.1195017E3,0E0,0E0,0E0,0E0,0E0,0E0,0E0,0E0],"parents":[2147483647,0,0,1,1,2,2,3,3,4,4,5,5,6,6],"right_children":[2,4,6,8,10,12,14,-1,-1,-1,-1,-1,-1,-1,-1],"split_conditions":[1E0,1.6282543E1,8.502467E0,7E0,1E0,6E0,1E0,-3.2745442E-1,-3.3735607E-2,-1.9509817E-2,4.0656462E-1,-1.5878052E-1,1.3805105E-1,1.090886E-1,4.2513418E-1],"split_indices":[1,0,0,3,4,3,2,0,0,0,0,0,0,0,0],"split_type":[0,0,0,0,0,0,0,0,0,0,0,0,0,0,0],"sum_hessian":[4E2,2.09E2,1.91E2,1.66E2,4.3E1,7.8E1,1.13E2,1.06E2,6E1,2.3E1,2E1,4.3E1,3.5E1,5.6E1,5.7E1],"tree_param":{"num_deleted":"0","num_feature":"6","num_nodes":"15","size_leaf_vector":"1"}},{"base_weights":[-6.5456782E-3,-1.6938392E0,4.6453996E0,-3.2210803E0,3.45182E0,3.2877233E0,6.08085E-1,-2.8905582E-1,8.655978E-3,-1.7237812E-1,2.4218817E-1,-1.9511422E-3,3.0414852E-1],"categories":[],"categories_nodes":[],"categories_segments":[],"categories_sizes":[],"default_left":[0,0,0,0,0,0,0,0,0,0,0,0,0],"id":38,"left_children":[1,3,5,7,9,11,-1,-1,-1,-1,-1,-1,-1],"loss_changes":[3.1553965E3,2.329424E3,1.0519187E3,1.9821555E3,6.697405E2,8.557525E2,0E0,0E0,0E0,0E0,0E0,0E0,0E0],"parents":[2147483647,0,0,1,1,2,2,3,3,4,4,5,5],"right_children":[2,4,6,8,10,12,-1,-1,-1,-1,-1,-1,-1],"split_conditions":[3E0,8E0,1.787729E1,1.2021249E1,4.6406126E0,1E0,6.08085E-1,-2.8905582E-1,8.655978E-3,-1.7237812E-1,2.4218817E-1,-1.9511422E-3,3.0414852E-1],"split_indices":[5,3,0,0,0,1,0,0,0,0,0,0,0],"split_type":[0,0,0,0,0,0,0,0,0,0,0,0,0],"sum_hessian":[4E2,2.94E2,1.06E2,2.27E2,6.7E1,9.1E1,1.5E1,1.29E2,9.8E1,1.1E1,5.6E1,4.2E1,4.9E1],"tree_param":{"num_deleted":"0","num_feature":"6","num_nodes":"13","size_leaf_vector":"1"}},{"base_weights":[-4.4741645E-3,-2.5810475E0,2.813676E0,-4.127699E0,3.3478582E0,1.4172679E-1,5.6564856E0,-4.5494705E-1,-1.3460493E-1,-2.3156572E-2,3.7719265E-1,-1.382983E-1,1.5523694E-1,1.4042077E-2,3.8143477E-1],"categories":[],"categories_nodes":[],"categories_segments":[],"categories_sizes":[],"default_left":[0,0,0,0,0,0,0,0,0,0,0,0,0,0,0],"id":39,"left_children":[1,3,5,7,9,11,13,-1,-1,-1,-1,-1,-1,-1,-1],"loss_changes":[2.9189915E3,1.9395084E3,1.4575999E3,1.1673367E3,7.0709314E2,8.7014044E2,9.838342E2,0E0,0E0,0E0,0E0,0E0,0E0,0E0,0E0],"parents":[2147483647,0,0,1,1,2,2,3,3,4,4,5,5,6,6],"right_children":[2,4,6,8,10,12,14,-1,-1,-1,-1,-1,-1,-1,-1],"split_conditions":[1E0,1.6282543E1,1E0,3E0,1E0,6E0,5.781229E0,-4.5494705E-1,-1.3460493E-1,-2.3156572E-2,3.7719265E-1,-1.382983E-1,1.5523694E-1,1.4042077E-2,3.8143477E-1],"split_indices":[1,0,2,3,4,3,0,0,0,0,0,0,0,0,0],"split_type":[0,0,0,0,0,0,0,0,0,0,0,0,0,0,0],"sum_hessian":[4E2,2.09E2,1.91E2,1.66E2,4.3E1,9.9E1,9.2E1,3.6E1,1.3E2,2.3E1,2E1,5E1,4.9E1,2.5E1,6.7E1],"tree_param":{"num_deleted":"0","num_feature":"6","num_nodes":"15","size_leaf_vector":"1"}},{"base_weights":[-3.808314E-3,-2.700592E0,2.613677E0,-4.3443003E0,2.5265026E0,-2.1057358E0,4.5947223E0,-2.865921E-1,4.2870655E-3,1.7048342E-2,4.527348E-1,-1.9177358E-1,2.6925117E-2,1.1970093E-1,4.4731268E-1],"categories":[],"categories_nodes":[],"categories_segments":[],"categories_sizes":[],"default_left":[0,0,0,0,0,0,0,0,0,0,0,0,0,0,0],"id":40,"left_children":[1,3,5,7,9,11,13,-1,-1,-1,-1,-1,-1,-1,-1],"loss_changes":[2.837634E3,1.7121558E3,1.9169465E3,9.2866846E2,6.8175745E2,2.8106918E2,1.3575889E3,0E0,0E0,0E0,0E0,0E0,0E0,0E0,0E0],"parents":[2147483647,0,0,1,1,2,2,3,3,4,4,5,5,6,6],"right_children":[2,4,6,8,10,12,14,-1,-1,-1,-1,-1,-1,-1,-1],"split_conditions":[1E0,8E0,5.9996743E0,1.629721E1,1.6732632E1,1E0,7E0,-2.865921E-1,4.2870655E-3,1.7048342E-2,4.527348E-1,-1.9177358E-1,2.6925117E-2,1.1970093E-1,4.4731268E-1],"split_indices":[4,3,0,0,0,1,3,0,0,0,0,0,0,0,0],"split_type":[0,0,0,0,0,0,0,0,0,0,0,0,0,0,0],"sum_hessian":[4E2,1.97E2,2.03E2,1.5E2,4.7E1,6E1,1.43E2,1.14E2,3.6E1,3.6E1,1.1E1,3.6E1,2.4E1,9.6E1,4.7E1],"tree_param":{"num_deleted":"0","num_feature":"6","num_nodes":"15","size_leaf_vector":"1"}},{"base_weights":[-2.1473703E-3,-1.5751681E0,4.334706E0,-6.319426E0,-1.2614189E-1,3.1002347E0,5.5809975E-1,-1.3570367E-1,-4.090984E-1,-6.824254E-2,2.6030603E-1,8.054081E-3,2.782951E-1],"categories":[],"categories_nodes":[],"categories_segments":[],"categories_sizes":[],"default_left":[0,0,0,0,0,0,0,0,0,0,0,0,0],"id":41,"left_children":[1,3,5,7,9,11,-1,-1,-1,-1,-1,-1,-1],"loss_changes":[2.7424336E3,2.0271963E3,8.672008E2,4.4113672E2,1.5064681E3,6.6582495E2,0E0,0E0,0E0,0E0,0E0,0E0,0E0],"parents":[2147483647,0,0,1,1,2,2,3,3,4,4,5,5],"right_children":[2,4,6,8,10,12,-1,-1,-1,-1,-1,-1,-1],"split_conditions":[3E0,3E0,1.787729E1,1E0,1.629721E1,1E0,5.5809975E-1,-1.3570367E-1,-4.090984E-1,-6.824254E-2,2.6030603E-1,8.054081E-3,2.782951E-1],"split_indices":[5,3,0,5,0,1,0,0,0,0,0,0,0],"split_type":[0,0,0,0,0,0,0,0,0,0,0,0,0],"sum_hessian":[4E2,2.94E2,1.06E2,6.8E1,2.26E2,9.1E1,1.5E1,2.4E1,4.4E1,1.84E2,4.2E1,4.2E1,4.9E1],"tree_param":{"num_deleted":"0","num_feature":"6","num_nodes":"13","size_leaf_vector":"1"}},{"base_weights":[-8.1359595E-4,-2.4708636E0,2.6740115E0,-4.60339E0,8.880914E-1,-1.322921E0,4.809864E0,-4.9909034E-1,-1.6331193E-1,-9.640541E-2,2.0212853E-1,-1.2211104E-1,2.7066198E-1,1.513406E-1,4.4296917E-1],"categories":[],"categories_nodes":[],"categories_segments":[],"categories_sizes":[],"default_left":[0,0,0,0,0,0,0,0,0,0,0,0,0,0,0],"id":42,"left_children":[1,3,5,7,9,11,13,-1,-1,-1,-1,-1,-1,-1,-1],"loss_changes":[2.6559946E3,1.5011678E3,1.6539767E3,8.8794214E2,7.362533E2,5.259255E2,8.829675E2,0E0,0E0,0E0,0E0,0E0,0E0,0E0,0E0],"parents":[2147483647,0,0,1,1,2,2,3,3,4,4,5,5,6,6],"right_children":[2,4,6,8,10,12,14,-1,-1,-1,-1,-1,-1,-1,-1],"split_conditions":[1E0,7E0,7.3095865E0,3.643815E0,1E0,9E0,7E0,-4.9909034E-1,-1.6331193E-1,-9.640541E-2,2.0212853E-1,-1.2211104E-1,2.7066198E-1,1.513406E-1,4.4296917E-1],"split_indices":[2,3,0,0,4,3,3,0,0,0,0,0,0,0,0],"split_type":[0,0,0,0,0,0,0,0,0,0,0,0,0,0,0],"sum_hessian":[4E2,2.08E2,1.92E2,1.27E2,8.1E1,6.7E1,1.25E2,2.4E1,1.03E2,4.3E1,3.8E1,5.8E1,9E0,8.8E1,3.7E1],"tree_param":{"num_deleted":"0","num_feature":"6","num_nodes":"15","size_leaf_vector":"1"}},{"base_weights":[-3.085624E-4,-2.3653023E0,2.5864048E0,-3.8452232E0,2.4473488E0,8.574162E-2,5.086175E0,-3.2376143E-1,-7.949661E-2,-4.4285655E-2,3.3648437E-1,-1.102915E-1,1.7751399E-1,1.3382581E-2,3.583905E-1],"categories":[],"categories_nodes":[],"categories_segments":[],"categories_sizes":[],"default_left":[0,0,0,0,0,0,0,0,0,0,0,0,0,0,0],"id":43,"left_children":[1,3,5,7,9,11,13,-1,-1,-1,-1,-1,-1,-1,-1],"loss_changes":[2.4592598E3,1.5051024E3,1.1997719E3,9.4466455E2,7.196255E2,7.7793726E2,9.610005E2,0E0,0E0,0E0,0E0,0E0,0E0,0E0,0E0],"parents":[2147483647,0,0,1,1,2,2,3,3,4,4,5,5,6,6],"right_children":[2,4,6,8,10,12,14,-1,-1,-1,-1,-1,-1,-1,-1],"split_conditions":[1E0,1.600613E1,1E0,1E0,1E0,1.2884326E1,4E0,-3.2376143E-1,-7.949661E-2,-4.4285655E-2,3.3648437E-1,-1.102915E-1,1.7751399E-1,1.3382581E-2,3.583905E-1],"split_indices":[1,0,4,4,4,0,3,0,0,0,0,0,0,0,0],"split_type":[0,0,0,0,0,0,0,0,0,0,0,0,0,0,0],"sum_hessian":[4E2,2.09E2,1.91E2,1.6E2,4.9E1,9.6E1,9.5E1,7.3E1,8.7E1,2.8E1,2.1E1,5.8E1,3.8E1,2.9E1,6.6E1],"tree_param":{"num_deleted":"0","num_feature":"6","num_nodes":"15","size_leaf_vector":"1"}},{"base_weights":[5.2496325E-4,-2.3413632E0,2.5365565E0,-4.3630533E0,8.4299904E-1,-1.1619668E0,4.5124536E0,-2.941657E-1,-1.5725926E-2,-4.004359E-2,2.989521E-1,-1.114728E-1,2.6262078E-1,1.421104E-1,4.1527978E-1],"categories":[],"categories_nodes":[],"categories_segments":[],"categories_sizes":[],"default_left":[0,0,0,0,0,0,0,0,0,0,0,0,0,0,0],"id":44,"left_children":[1,3,5,7,9,11,13,-1,-1,-1,-1,-1,-1,-1,-1],"loss_changes":[2.387519E3,1.3491772E3,1.4156683E3,7.859675E2,6.971137E2,4.7732526E2,7.746638E2,0E0,0E0,0E0,0E0,0E0,0E0,0E0,0E0],"parents":[2147483647,0,0,1,1,2,2,3,3,4,4,5,5,6,6],"right_children":[2,4,6,8,10,12,14,-1,-1,-1,-1,-1,-1,-1,-1],"split_conditions":[1E0,7E0,7.3095865E0,3E0,1.5640053E1,9E0,7E0,-2.941657E-1,-1.5725926E-2,-4.004359E-2,2.989521E-1,-1.114728E-1,2.6262078E-1,1.421104E-1,4.1527978E-1],"split_indices":[2,3,0,5,0,3,3,0,0,0,0,0,0,0,0],"split_type":[0,0,0,0,0,0,0,0,0,0,0,0,0,0,0],"sum_hessian":[4E2,2.08E2,1.92E2,1.27E2,8.1E1,6.7E1,1.25E2,9.2E1,3.5E1,6.2E1,1.9E1,5.8E1,9E0,8.8E1,3.7E1],"tree_param":{"num_deleted":"0","num_feature":"6","num_nodes":"15","size_leaf_vector":"1"}},{"base_weights":[2.138333E-3,-1.4319236E0,3.9558406E0,-3.6300862E0,1.1296805E0,-1.3468586E0,5.266347E0,-3.8802788E-1,-1.1568957E-1,-1.5240659E-1,1.5043995E-1,-1.7080168E-1,1.7875464E-1,1.36185E-1,3.8157585E-1],"categories":[],"categories_nodes":[],"categories_segments":[],"categories_sizes":[],"default_left":[0,0,0,0,0,0,0,0,0,0,0,0,0,0,0],"id":45,"left_children":[1,3,5,7,9,11,13,-1,-1,-1,-1,-1,-1,-1,-1],"loss_changes":[2.279276E3,1.6651934E3,7.506598E2,8.465137E2,1.0847039E3,2.36269E2,4.9640015E2,0E0,0E0,0E0,0E0,0E0,0E0,0E0,0E0],"parents":[2147483647,0,0,1,1,2,2,3,3,4,4,5,5,6,6],"right_children":[2,4,6,8,10,12,14,-1,-1,-1,-1,-1,-1,-1,-1],"split_conditions":[3E0,1E0,4.1381164E0,3E0,4E0,7E0,5E0,-3.8802788E-1,-1.1568957E-1,-1.5240659E-1,1.5043995E-1,-1.7080168E-1,1.7875464E-1,1.36185E-1,3.8157585E-1],"split_indices":[5,1,0,3,3,3,3,0,0,0,0,0,0,0,0],"split_type":[0,0,0,0,0,0,0,0,0,0,0,0,0,0,0],"sum_hessian":[4E2,2.94E2,1.06E2,1.58E2,1.36E2,2.1E1,8.5E1,3.7E1,1.21E2,4.2E1,9.4E1,1.5E1,6E0,4.2E1,4.3E1],"tree_param":{"num_deleted":"0","num_feature":"6","num_nodes":"15","size_leaf_vector":"1"}},{"base_weights":[2.0824727E-3,-2.3611972E0,2.2958436E0,-3.7739182E0,1.8959352E0,-3.3397532E0,3.523351E0,-2.9346916E-1,-5.2489128E-2,-3.622158E-2,2.9313534E-1,-2.3886757E-1,-5.771605E-2,1.1492356E-1,3.8266218E-1],"categories":[],"categories_nodes":[],"categories_segments":[],"categories_sizes":[],"default_left":[0,0,0,0,0,0,0,0,0,0,0,0,0,0,0],"id":46,"left_children":[1,3,5,7,9,11,13,-1,-1,-1,-1,-1,-1,-1,-1],"loss_changes":[2.1791614E3,1.1979548E3,1.4229855E3,8.443794E2,5.23967E2,1.1073105E2,8.322578E2,0E0,0E0,0E0,0E0,0E0,0E0,0E0,0E0],"parents":[2147483647,0,0,1,1,2,2,3,3,4,4,5,5,6,6],"right_children":[2,4,6,8,10,12,14,-1,-1,-1,-1,-1,-1,-1,-1],"split_conditions":[1E0,1.629721E1,2.8169494E0,1E0,6E0,1E0,8E0,-2.9346916E-1,-5.2489128E-2,-3.622158E-2,2.9313534E-1,-2.3886757E-1,-5.771605E-2,1.1492356E-1,3.8266218E-1],"split_indices":[4,0,0,2,3,1,3,0,0,0,0,0,0,0,0],"split_type":[0,0,0,0,0,0,0,0,0,0,0,0,0,0,0],"sum_hessian":[4E2,1.97E2,2.03E2,1.48E2,4.9E1,3.6E1,1.67E2,8.3E1,6.5E1,3E1,1.9E1,2.1E1,1.5E1,1.3E2,3.7E1],"tree_param":{"num_deleted":"0","num_feature":"6","num_nodes":"15","size_leaf_vector":"1"}},{"base_weights":[2.2590428E-3,-2.1626544E0,2.3466356E0,-3.9686174E0,8.5941917E-1,-1.0353346E0,4.1532016E0,-3.2953477E-1,-5.6032505E-2,-7.0504904E-2,1.6726084E-1,-1.0032097E-1,2.3987995E-1,1.3202794E-1,3.793338E-1],"categories":[],"categories_nodes":[],"categories_segments":[],"categories_sizes":[],"default_left":[0,0,0,0,0,0,0,0,0,0,0,0,0,0,0],"id":47,"left_children":[1,3,5,7,9,11,13,-1,-1,-1,-1,-1,-1,-1,-1],"loss_changes":[2.0402991E3,1.1440814E3,1.1834822E3,9.7086865E2,4.5040033E2,3.9479654E2,6.3436304E2,0E0,0E0,0E0,0E0,0E0,0E0,0E0,0E0],"parents":[2147483647,0,0,1,1,2,2,3,3,4,4,5,5,6,6],"right_children":[2,4,6,8,10,12,14,-1,-1,-1,-1,-1,-1,-1,-1],"split_conditions":[1E0,1.2704268E1,7.3095865E0,6E0,1E0,9E0,7E0,-3.2953477E-1,-5.6032505E-2,-7.0504904E-2,1.6726084E-1,-1.0032097E-1,2.3987995E-1,1.3202794E-1,3.793338E-1],"split_indices":[2,0,0,3,1,3,3,0,0,0,0,0,0,0,0],"split_type":[0,0,0,0,0,0,0,0,0,0,0,0,0,0,0],"sum_hessian":[4E2,2.08E2,1.92E2,1.3E2,7.8E1,6.7E1,1.25E2,6.7E1,6.3E1,4.1E1,3.7E1,5.8E1,9E0,8.8E1,3.7E1],"tree_param":{"num_deleted":"0","num_feature":"6","num_nodes":"15","size_leaf_vector":"1"}},{"base_weights":[3.0494176E-3,-1.3421651E0,3.71179E0,-3.3821826E0,1.0352432E0,2.6649806E0,4.7494784E-1,-3.6157104E-1,-1.0777583E-1,-1.3817324E-1,1.3718805E-1,8.2710795E-3,2.3806511E-1],"categories":[],"categories_nodes":[],"categories_segments":[],"categories_sizes":[],"default_left":[0,0,0,0,0,0,0,0,0,0,0,0,0],"id":48,"left_children":[1,3,5,7,9,11,-1,-1,-1,-1,-1,-1,-1],"loss_changes":[2.0055916E3,1.4342379E3,6.2289795E2,7.351676E2,8.9673413E2,4.812812E2,0E0,0E0,0E0,0E0,0E0,0E0,0E0],"parents":[2147483647,0,0,1,1,2,2,3,3,4,4,5,5],"right_children":[2,4,6,8,10,12,-1,-1,-1,-1,-1,-1,-1],"split_conditions":[3E0,1E0,1.787729E1,3E0,4E0,1E0,4.7494784E-1,-3.6157104E-1,-1.0777583E-1,-1.3817324E-1,1.3718805E-1,8.2710795E-3,2.3806511E-1],"split_indices":[5,1,0,3,3,1,0,0,0,0,0,0,0],"split_type":[0,0,0,0,0,0,0,0,0,0,0,0,0],"sum_hessian":[4E2,2.94E2,1.06E2,1.58E2,1.36E2,9.1E1,1.5E1,3.7E1,1.21E2,4.2E1,9.4E1,4.2E1,4.9E1],"tree_param":{"num_deleted":"0","num_feature":"6","num_nodes":"13","size_leaf_vector":"1"}},{"base_weights":[3.5214508E-3,-2.2233822E0,2.1649108E0,-3.493396E0,1.8181895E0,-7.4921477E-1,4.2110424E0,-2.7034703E-1,-6.0095496E-2,3.4804062E-3,3.5290664E-1,-1.2739903E-1,7.188696E-2,1.4467888E-1,4.8207498E-1],"categories":[],"categories_nodes":[],"categories_segments":[],"categories_sizes":[],"default_left":[0,0,0,0,0,0,0,0,0,0,0,0,0,0,0],"id":49,"left_children":[1,3,5,7,9,11,13,-1,-1,-1,-1,-1,-1,-1,-1],"loss_changes":[1.934909E3,1.0226564E3,1.2195424E3,6.5561536E2,4.3930713E2,3.3803784E2,8.3063403E2,0E0,0E0,0E0,0E0,0E0,0E0,0E0,0E0],"parents":[2147483647,0,0,1,1,2,2,3,3,4,4,5,5,6,6],"right_children":[2,4,6,8,10,12,14,-1,-1,-1,-1,-1,-1,-1,-1],"split_conditions":[1E0,8E0,8.502467E0,1E0,3E0,1E0,8E0,-2.7034703E-1,-6.0095496E-2,3.4804062E-3,3.5290664E-1,-1.2739903E-1,7.188696E-2,1.4467888E-1,4.8207498E-1],"split_indices":[4,3,0,1,5,1,3,0,0,0,0,0,0,0,0],"split_type":[0,0,0,0,0,0,0,0,0,0,0,0,0,0,0],"sum_hessian":[4E2,1.97E2,2.03E2,1.5E2,4.7E1,8.4E1,1.19E2,8.1E1,6.9E1,3.6E1,1.1E1,4.6E1,3.8E1,9.7E1,2.2E1],"tree_param":{"num_deleted":"0","num_feature":"6","num_nodes":"15","size_leaf_vector":"1"}},{"base_weights":[4.8355046E-3,-2.0354784E0,2.2142694E0,-3.5321085E0,1.1197715E0,-1.6895939E0,3.5182352E0,-3.00887E-1,-4.808604E-2,-1.6572941E-2,2.4399316E-1,-3.2081348E-1,-2.3284264E-2,1.0433767E-1,3.326467E-1],"categories":[],"categories_nodes":[],"categories_segments":[],"categories_sizes":[],"default_left":[0,0,0,0,0,0,0,0,0,0,0,0,0,0,0],"id":50,"left_children":[1,3,5,7,9,11,13,-1,-1,-1,-1,-1,-1,-1,-1],"loss_changes":[1.8121903E3,9.909039E2,9.884116E2,9.014557E2,3.7267712E2,2.8047797E2,6.3677026E2,0E0,0E0,0E0,0E0,0E0,0E0,0E0,0E0],"parents":[2147483647,0,0,1,1,2,2,3,3,4,4,5,5,6,6],"right_children":[2,4,6,8,10,12,14,-1,-1,-1,-1,-1,-1,-1,-1],"split_conditions":[1E0,1.4091807E1,5.257798E0,6E0,8E0,1.2282897E0,7E0,-3.00887E-1,-4.808604E-2,-1.6572941E-2,2.4399316E-1,-3.2081348E-1,-2.3284264E-2,1.0433767E-1,3.326467E-1],"split_indices":[2,0,0,3,3,0,3,0,0,0,0,0,0,0,0],"split_type":[0,0,0,0,0,0,0,0,0,0,0,0,0,0,0],"sum_hessian":[4E2,2.08E2,1.92E2,1.41E2,6.7E1,4.8E1,1.44E2,7.1E1,7E1,4.9E1,1.8E1,9E0,3.9E1,1E2,4.4E1],"tree_param":{"num_deleted":"0","num_feature":"6","num_nodes":"15","size_leaf_vector":"1"}},{"base_weights":[4.52171E-3,-1.2514943E0,3.4673274E0,-3.1186657E0,9.246498E-1,-9.638991E-1,4.560579E0,-3.3302578E-1,-9.949519E-2,-1.2657216E-1,1.2396266E-1,-1.3810621E-1,1.6420147E-1,1.7776261E-1,4.3683407E-1],"categories":[],"categories_nodes":[],"categories_segments":[],"categories_sizes":[],"default_left":[0,0,0,0,0,0,0,0,0,0,0,0,0,0,0],"id":51,"left_children":[1,3,5,7,9,11,13,-1,-1,-1,-1,-1,-1,-1,-1],"loss_changes":[1.7484243E3,1.2015376E3,5.227517E2,6.224132E2,7.423571E2,1.7712297E2,3.2999683E2,0E0,0E0,0E0,0E0,0E0,0E0,0E0,0E0],"parents":[2147483647,0,0,1,1,2,2,3,3,4,4,5,5,6,6],"right_children":[2,4,6,8,10,12,14,-1,-1,-1,-1,-1,-1,-1,-1],"split_conditions":[3E0,1E0,4.1381164E0,3E0,4E0,7E0,1.787729E1,-3.3302578E-1,-9.949519E-2,-1.2657216E-1,1.2396266E-1,-1.3810621E-1,1.6420147E-1,1.7776261E-1,4.3683407E-1],"split_indices":[5,1,0,3,3,3,0,0,0,0,0,0,0,0,0],"split_type":[0,0,0,0,0,0,0,0,0,0,0,0,0,0,0],"sum_hessian":[4E2,2.94E2,1.06E2,1.58E2,1.36E2,2.1E1,8.5E1,3.7E1,1.21E2,4.2E1,9.4E1,1.5E1,6E0,7E1,1.5E1],"tree_param":{"num_deleted":"0","num_feature":"6","num_nodes":"15","size_leaf_vector":"1"}},{"base_weights":[4.8077647E-3,-2.0910783E0,2.0390265E0,-3.3203175E0,1.6138767E0,-2.732936E0,3.0778573E0,-2.5541055E-1,-4.972544E-2,-2.5541693E-2,2.4132422E-1,-2.081654E-1,-4.0262233E-2,1.1185264E-1,4.0147373E-1],"categories":[],"categories_nodes":[],"categories_segments":[],"categories_sizes":[],"default_left":[0,0,0,0,0,0,0,0,0,0,0,0,0,0,0],"id":52,"left_children":[1,3,5,7,9,11,13,-1,-1,-1,-1,-1,-1,-1,-1],"loss_changes":[1.7139235E3,9.071053E2,1.01969293E3,6.1450635E2,3.437586E2,9.866821E1,6.81479E2,0E0,0E0,0E0,0E0,0E0,0E0,0E0,0E0],"parents":[2147483647,0,0,1,1,2,2,3,3,4,4,5,5,6,6],"right_children":[2,4,6,8,10,12,14,-1,-1,-1,-1,-1,-1,-1,-1],"split_conditions":[1E0,1.629721E1,2.8169494E0,1E0,6E0,1E0,1.7860144E1,-2.5541055E-1,-4.972544E-2,-2.5541693E-2,2.4132422E-1,-2.081654E-1,-4.0262233E-2,1.1185264E-1,4.0147373E-1],"split_indices":[4,0,0,2,3,2,0,0,0,0,0,0,0,0,0],"split_type":[0,0,0,0,0,0,0,0,0,0,0,0,0,0,0],"sum_hessian":[4E2,1.97E2,2.03E2,1.48E2,4.9E1,3.6E1,1.67E2,8.3E1,6.5E1,3E1,1.9E1,2E1,1.6E1,1.44E2,2.3E1],"tree_param":{"num_deleted":"0","num_feature":"6","num_nodes":"15","size_leaf_vector":"1"}},{"base_weights":[5.004626E-3,-1.1785226E0,3.2679534E0,-2.9473045E0,8.8289976E-1,-8.0586016E-1,4.2720923E0,-3.1566083E-1,-9.373737E-2,-5.4715317E-2,1.6821218E-1,-1.6082911E-1,1.2043323E-1,1.1321696E-1,3.068561E-1],"categories":[],"categories_nodes":[],"categories_segments":[],"categories_sizes":[],"default_left":[0,0,0,0,0,0,0,0,0,0,0,0,0,0,0],"id":53,"left_children":[1,3,5,7,9,11,13,-1,-1,-1,-1,-1,-1,-1,-1],"loss_changes":[1.5524286E3,1.078233E3,4.4114478E2,5.621754E2,6.7582104E2,1.7823286E2,3.0813208E2,0E0,0E0,0E0,0E0,0E0,0E0,0E0,0E0],"parents":[2147483647,0,0,1,1,2,2,3,3,4,4,5,5,6,6],"right_children":[2,4,6,8,10,12,14,-1,-1,-1,-1,-1,-1,-1,-1],"split_conditions":[3E0,1E0,4.1381164E0,3E0,1E0,1E0,5E0,-3.1566083E-1,-9.373737E-2,-5.4715317E-2,1.6821218E-1,-1.6082911E-1,1.2043323E-1,1.1321696E-1,3.068561E-1],"split_indices":[5,1,0,3,4,1,3,0,0,0,0,0,0,0,0],"split_type":[0,0,0,0,0,0,0,0,0,0,0,0,0,0,0],"sum_hessian":[4E2,2.94E2,1.06E2,1.58E2,1.36E2,2.1E1,8.5E1,3.7E1,1.21E2,7.6E1,6E1,1.2E1,9E0,4.2E1,4.3E1],"tree_param":{"num_deleted":"0","num_feature":"6","num_nodes":"15","size_leaf_vector":"1"}},{"base_weights":[4.9628355E-3,-1.8629922E0,2.0277483E0,-3.3753436E0,6.6841316E-1,1.1214459E0,6.914611E0,-2.789861E-1,-4.9022578E-2,-5.642903E-2,1.4230858E-1,-1.1232376E-2,2.1895926E-1,1.9569834E-1,5.268728E-1],"categories":[],"categories_nodes":[],"categories_segments":[],"categories_sizes":[],"default_left":[0,0,0,0,0,0,0,0,0,0,0,0,0,0,0],"id":54,"left_children":[1,3,5,7,9,11,13,-1,-1,-1,-1,-1,-1,-1,-1],"loss_changes":[1.5189452E3,8.023863E2,8.4703796E2,6.861111E2,3.123722E2,7.201601E2,2.848827E2,0E0,0E0,0E0,0E0,0E0,0E0,0E0,0E0],"parents":[2147483647,0,0,1,1,2,2,3,3,4,4,5,5,6,6],"right_children":[2,4,6,8,10,12,14,-1,-1,-1,-1,-1,-1,-1,-1],"split_conditions":[1E0,1.2704268E1,1.7390434E1,6E0,1E0,7E0,1E0,-2.789861E-1,-4.9022578E-2,-5.642903E-2,1.4230858E-1,-1.1232376E-2,2.1895926E-1,1.9569834E-1,5.268728E-1],"split_indices":[2,0,0,3,4,3,4,0,0,0,0,0,0,0,0],"split_type":[0,0,0,0,0,0,0,0,0,0,0,0,0,0,0],"sum_hessian":[4E2,2.08E2,1.92E2,1.3E2,7.8E1,1.63E2,2.9E1,6.7E1,6.3E1,4.3E1,3.5E1,1.16E2,4.7E1,1.7E1,1.2E1],"tree_param":{"num_deleted":"0","num_feature":"6","num_nodes":"15","size_leaf_vector":"1"}},{"base_weights":[6.429915E-3,-1.9039675E0,1.8606077E0,-3.0437906E0,1.5307847E0,-5.7388073E-1,3.6043506E0,-4.2304945E-1,-1.1642406E-1,-7.465808E-2,1.7161688E-1,-1.05013184E-1,6.597297E-2,1.2190377E-1,4.1831395E-1],"categories":[],"categories_nodes":[],"categories_segments":[],"categories_sizes":[],"default_left":[0,0,0,0,0,0,0,0,0,0,0,0,0,0,0],"id":55,"left_children":[1,3,5,7,9,11,13,-1,-1,-1,-1,-1,-1,-1,-1],"loss_changes":[1.4239714E3,7.798313E2,8.680733E2,5.576697E2,2.926347E2,2.5130794E2,6.404945E2,0E0,0E0,0E0,0E0,0E0,0E0,0E0,0E0],"parents":[2147483647,0,0,1,1,2,2,3,3,4,4,5,5,6,6],"right_children":[2,4,6,8,10,12,14,-1,-1,-1,-1,-1,-1,-1,-1],"split_conditions":[1E0,1.629721E1,8.639515E0,2E0,4E0,1E0,8E0,-4.2304945E-1,-1.1642406E-1,-7.465808E-2,1.7161688E-1,-1.05013184E-1,6.597297E-2,1.2190377E-1,4.1831395E-1],"split_indices":[4,0,0,3,3,1,3,0,0,0,0,0,0,0,0],"split_type":[0,0,0,0,0,0,0,0,0,0,0,0,0,0,0],"sum_hessian":[4E2,1.97E2,2.03E2,1.48E2,4.9E1,8.5E1,1.18E2,1.6E1,1.32E2,1.9E1,3E1,4.7E1,3.8E1,9.6E1,2.2E1],"tree_param":{"num_deleted":"0","num_feature":"6","num_nodes":"15","size_leaf_vector":"1"}},{"base_weights":[6.2556183E-3,-1.1042885E0,3.0679774E0,-2.762326E0,8.2806385E-1,-7.5824916E-1,3.9562855E0,-2.1889399E-1,-4.23731E-2,-1.1326468E-1,1.1097493E-1,-1.4978151E-1,1.2788866E-1,1.0911455E-1,2.7817592E-1],"categories":[],"categories_nodes":[],"categories_segments":[],"categories_sizes":[],"default_left":[0,0,0,0,0,0,0,0,0,0,0,0,0,0,0],"id":56,"left_children":[1,3,5,7,9,11,13,-1,-1,-1,-1,-1,-1,-1,-1],"loss_changes":[1.3668589E3,9.474415E2,3.6667853E2,4.88167E2,5.947039E2,1.6346545E2,2.3591516E2,0E0,0E0,0E0,0E0,0E0,0E0,0E0,0E0],"parents":[2147483647,0,0,1,1,2,2,3,3,4,4,5,5,6,6],"right_children":[2,4,6,8,10,12,14,-1,-1,-1,-1,-1,-1,-1,-1],"split_conditions":[3E0,1E0,3.8774364E0,1E0,4E0,6E0,5E0,-2.1889399E-1,-4.23731E-2,-1.1326468E-1,1.1097493E-1,-1.4978151E-1,1.2788866E-1,1.0911455E-1,2.7817592E-1],"split_indices":[5,1,0,2,3,3,3,0,0,0,0,0,0,0,0],"split_type":[0,0,0,0,0,0,0,0,0,0,0,0,0,0,0],"sum_hessian":[4E2,2.94E2,1.06E2,1.58E2,1.36E2,2E1,8.6E1,8.5E1,7.3E1,4.2E1,9.4E1,1.2E1,8E0,4.2E1,4.4E1],"tree_param":{"num_deleted":"0","num_feature":"6","num_nodes":"15","size_leaf_vector":"1"}},{"base_weights":[6.1966856E-3,-1.7237635E0,1.8795412E0,-3.178396E0,5.679038E-1,1.3208112E0,4.46448E-1,-3.628094E-1,-1.083798E-1,-7.1662806E-2,1.4055306E-1,2.61449E-3,2.139863E-1],"categories":[],"categories_nodes":[],"categories_segments":[],"categories_sizes":[],"default_left":[0,0,0,0,0,0,0,0,0,0,0,0,0],"id":57,"left_children":[1,3,5,7,9,11,-1,-1,-1,-1,-1,-1,-1],"loss_changes":[1.3028053E3,6.9851355E2,7.483799E2,5.1186597E2,3.7212012E2,6.7539655E2,0E0,0E0,0E0,0E0,0E0,0E0,0E0],"parents":[2147483647,0,0,1,1,2,2,3,3,4,4,5,5],"right_children":[2,4,6,8,10,12,-1,-1,-1,-1,-1,-1,-1],"split_conditions":[1E0,7E0,1.8820229E1,3.643815E0,1E0,3E0,4.46448E-1,-3.628094E-1,-1.083798E-1,-7.1662806E-2,1.4055306E-1,2.61449E-3,2.139863E-1],"split_indices":[2,3,0,0,4,5,0,0,0,0,0,0,0],"split_type":[0,0,0,0,0,0,0,0,0,0,0,0,0],"sum_hessian":[4E2,2.08E2,1.92E2,1.27E2,8.1E1,1.79E2,1.3E1,2.4E1,1.03E2,4.3E1,3.8E1,1.26E2,5.3E1],"tree_param":{"num_deleted":"0","num_feature":"6","num_nodes":"13","size_leaf_vector":"1"}},{"base_weights":[6.536574E-3,-1.773275E0,1.7339687E0,-2.8235626E0,1.3920475E0,7.9395753E-1,5.6905813E0,-3.9469707E-1,-1.0771197E-1,-2.1092612E-2,2.0669949E-1,-5.667588E-2,1.4654844E-1,1.462661E-1,4.2237082E-1],"categories":[],"categories_nodes":[],"categories_segments":[],"categories_sizes":[],"default_left":[0,0,0,0,0,0,0,0,0,0,0,0,0,0,0],"id":58,"left_children":[1,3,5,7,9,11,13,-1,-1,-1,-1,-1,-1,-1,-1],"loss_changes":[1.2359509E3,6.6218134E2,7.54211E2,4.886593E2,2.5042433E2,6.870822E2,2.7259973E2,0E0,0E0,0E0,0E0,0E0,0E0,0E0,0E0],"parents":[2147483647,0,0,1,1,2,2,3,3,4,4,5,5,6,6],"right_children":[2,4,6,8,10,12,14,-1,-1,-1,-1,-1,-1,-1,-1],"split_conditions":[1E0,1.629721E1,1.600613E1,2E0,6E0,1E0,1E0,-3.9469707E-1,-1.0771197E-1,-2.1092612E-2,2.0669949E-1,-5.667588E-2,1.4654844E-1,1.462661E-1,4.2237082E-1],"split_indices":[4,0,0,3,3,1,2,0,0,0,0,0,0,0,0],"split_type":[0,0,0,0,0,0,0,0,0,0,0,0,0,0,0],"sum_hessian":[4E2,1.97E2,2.03E2,1.48E2,4.9E1,1.65E2,3.8E1,1.6E1,1.32E2,3E1,1.9E1,8.7E1,7.8E1,2E1,1.8E1],"tree_param":{"num_deleted":"0","num_feature":"6","num_nodes":"15","size_leaf_vector":"1"}},{"base_weights":[7.062869E-3,-1.6145121E0,1.7806237E0,-2.5715554E0,1.8534585E0,5.9760742E-2,3.6118674E0,-1.9437735E-1,-1.0188894E-2,-1.8044546E-1,1.4632098E-1,-6.909815E-2,1.2242072E-1,-6.47304E-2,2.2126761E-1],"categories":[],"categories_nodes":[],"categories_segments":[],"categories_sizes":[],"default_left":[0,0,0,0,0,0,0,0,0,0,0,0,0,0,0],"id":59,"left_children":[1,3,5,7,9,11,13,-1,-1,-1,-1,-1,-1,-1,-1],"loss_changes":[1.1561355E3,7.0175574E2,6.048376E2,5.1334375E2,2.8016296E2,3.4776144E2,3.7692395E2,0E0,0E0,0E0,0E0,0E0,0E0,0E0,0E0],"parents":[2147483647,0,0,1,1,2,2,3,3,4,4,5,5,6,6],"right_children":[2,4,6,8,10,12,14,-1,-1,-1,-1,-1,-1,-1,-1],"split_conditions":[1E0,1.6233278E1,1E0,7E0,2E0,1.2646364E1,2E0,-1.9437735E-1,-1.0188894E-2,-1.8044546E-1,1.4632098E-1,-6.909815E-2,1.2242072E-1,-6.47304E-2,2.2126761E-1],"split_indices":[1,0,2,3,3,0,3,0,0,0,0,0,0,0,0],"split_type":[0,0,0,0,0,0,0,0,0,0,0,0,0,0,0],"sum_hessian":[4E2,2.09E2,1.91E2,1.64E2,4.5E1,9.9E1,9.2E1,1.05E2,5.9E1,7E0,3.8E1,6.2E1,3.7E1,1.3E1,7.9E1],"tree_param":{"num_deleted":"0","num_feature":"6","num_nodes":"15","size_leaf_vector":"1"}},{"base_weights":[6.6367267E-3,-1.00048E0,2.783205E0,-5.5606833E0,-4.2448315E-1,-6.497995E-1,3.5798705E0,-5.5223357E-2,-3.4712467E-1,-4.7356598E-2,2.8217617E-1,-1.3568397E-1,1.2017801E-1,9.8574184E-2,2.5186104E-1],"categories":[],"categories_nodes":[],"categories_segments":[],"categories_sizes":[],"default_left":[0,0,0,0,0,0,0,0,0,0,0,0,0,0,0],"id":60,"left_children":[1,3,5,7,9,11,13,-1,-1,-1,-1,-1,-1,-1,-1],"loss_changes":[1.1241122E3,7.72505E2,2.949666E2,1.955346E2,8.3943286E2,1.3885962E2,1.939956E2,0E0,0E0,0E0,0E0,0E0,0E0,0E0,0E0],"parents":[2147483647,0,0,1,1,2,2,3,3,4,4,5,5,6,6],"right_children":[2,4,6,8,10,12,14,-1,-1,-1,-1,-1,-1,-1,-1],"split_conditions":[3E0,2E0,3.8774364E0,1E0,1.8838942E1,6E0,5E0,-5.5223357E-2,-3.4712467E-1,-4.7356598E-2,2.8217617E-1,-1.3568397E-1,1.2017801E-1,9.8574184E-2,2.5186104E-1],"split_indices":[5,3,0,5,0,3,3,0,0,0,0,0,0,0,0],"split_type":[0,0,0,0,0,0,0,0,0,0,0,0,0,0,0],"sum_hessian":[4E2,2.94E2,1.06E2,3.2E1,2.62E2,2E1,8.6E1,8E0,2.4E1,2.42E2,2E1,1.2E1,8E0,4.2E1,4.4E1],"tree_param":{"num_deleted":"0","num_feature":"6","num_nodes":"15","size_leaf_vector":"1"}},{"base_weights":[6.7220386E-3,-1.6760131E0,1.639932E0,-2.224753E0,3.6107852E0,-4.863821E-1,3.162815E0,-3.6969683E-1,-8.023788E-2,-2.3342228E-2,3.0141532E-1,-1.1401941E-1,3.652377E-2,1.0590762E-1,3.7155268E-1],"categories":[],"categories_nodes":[],"categories_segments":[],"categories_sizes":[],"default_left":[0,0,0,0,0,0,0,0,0,0,0,0,0,0,0],"id":61,"left_children":[1,3,5,7,9,11,13,-1,-1,-1,-1,-1,-1,-1,-1],"loss_changes":[1.1048008E3,5.824462E2,6.6211646E2,5.650109E2,1.9011166E2,1.8940802E2,5.1486523E2,0E0,0E0,0E0,0E0,0E0,0E0,0E0,0E0],"parents":[2147483647,0,0,1,1,2,2,3,3,4,4,5,5,6,6],"right_children":[2,4,6,8,10,12,14,-1,-1,-1,-1,-1,-1,-1,-1],"split_conditions":[1E0,9E0,8.639515E0,2.3326478E0,1E0,2.7917619E0,8E0,-3.6969683E-1,-8.023788E-2,-2.3342228E-2,3.0141532E-1,-1.1401941E-1,3.652377E-2,1.0590762E-1,3.7155268E-1],"split_indices":[4,3,0,0,2,0,3,0,0,0,0,0,0,0,0],"split_type":[0,0,0,0,0,0,0,0,0,0,0,0,0,0,0],"sum_hessian":[4E2,1.97E2,2.03E2,1.79E2,1.8E1,8.5E1,1.18E2,1.8E1,1.61E2,7E0,1.1E1,3.4E1,5.1E1,9.6E1,2.2E1],"tree_param":{"num_deleted":"0","num_feature":"6","num_nodes":"15","size_leaf_vector":"1"}},{"base_weights":[6.9546876E-3,-1.5622936E0,1.7062601E0,-6.1566825E0,-9.610699E-1,1.2178979E0,3.9316633E-1,-2.7066542E-2,-4.2185217E-1,-9.972339E-2,6.211535E-2,-2.0589681E-2,1.4823577E-1],"categories":[],"categories_nodes":[],"categories_segments":[],"categories_sizes":[],"default_left":[0,0,0,0,0,0,0,0,0,0,0,0,0],"id":62,"left_children":[1,3,5,7,9,11,-1,-1,-1,-1,-1,-1,-1],"loss_changes":[1.0719852E3,5.713944E2,5.707508E2,3.0275348E2,4.259933E2,5.1364E2,0E0,0E0,0E0,0E0,0E0,0E0,0E0],"parents":[2147483647,0,0,1,1,2,2,3,3,4,4,5,5],"right_children":[2,4,6,8,10,12,-1,-1,-1,-1,-1,-1,-1],"split_conditions":[1E0,2E0,1.8820229E1,1E0,1.4091807E1,1E0,3.9316633E-1,-2.7066542E-2,-4.2185217E-1,-9.972339E-2,6.211535E-2,-2.0589681E-2,1.4823577E-1],"split_indices":[2,3,0,5,0,1,0,0,0,0,0,0,0],"split_type":[0,0,0,0,0,0,0,0,0,0,0,0,0],"sum_hessian":[4E2,2.08E2,1.92E2,2.3E1,1.85E2,1.79E2,1.3E1,7E0,1.6E1,1.26E2,5.9E1,9.3E1,8.6E1],"tree_param":{"num_deleted":"0","num_feature":"6","num_nodes":"13","size_leaf_vector":"1"}},{"base_weights":[6.6918638E-3,-1.5911387E0,1.5574945E0,-2.5061376E0,1.3204442E0,-2.0317178E0,2.338705E0,-3.5233483E-1,-9.387547E-2,-3.5659116E-2,1.780958E-1,-2.0914495E-1,-5.9543867E-2,2.3964277E-2,1.8641387E-1],"categories":[],"categories_nodes":[],"categories_segments":[],"categories_sizes":[],"default_left":[0,0,0,0,0,0,0,0,0,0,0,0,0,0,0],"id":63,"left_children":[1,3,5,7,9,11,13,-1,-1,-1,-1,-1,-1,-1,-1],"loss_changes":[9.961241E2,5.3080005E2,5.7675336E2,4.1777264E2,2.2133948E2,6.194429E1,4.3229114E2,0E0,0E0,0E0,0E0,0E0,0E0,0E0,0E0],"parents":[2147483647,0,0,1,1,2,2,3,3,4,4,5,5,6,6],"right_children":[2,4,6,8,10,12,14,-1,-1,-1,-1,-1,-1,-1,-1],"split_conditions":[1E0,8E0,2.8169494E0,2.3326478E0,1E0,3E0,5E0,-3.5233483E-1,-9.387547E-2,-3.5659116E-2,1.780958E-1,-2.0914495E-1,-5.9543867E-2,2.3964277E-2,1.8641387E-1],"split_indices":[4,3,0,0,2,3,3,0,0,0,0,0,0,0,0],"split_type":[0,0,0,0,0,0,0,0,0,0,0,0,0,0,0],"sum_hessian":[4E2,1.97E2,2.03E2,1.5E2,4.7E1,3.6E1,1.67E2,1.7E1,1.33E2,2.5E1,2.2E1,9E0,2.7E1,7.2E1,9.5E1],"tree_param":{"num_deleted":"0","num_feature":"6","num_nodes":"15","size_leaf_vector":"1"}},{"base_weights":[5.4532667E-3,-9.297383E-1,2.583734E0,-2.3355038E0,7.08557E-1,1.6049467E0,4.9315696E0,-1.8652147E-1,-3.414066E-2,-3.2838147E-2,1.47648E-1,-1.7395444E-3,1.8961589E-1,1.53181E-1,3.4904823E-1],"categories":[],"categories_nodes":[],"categories_segments":[],"categories_sizes":[],"default_left":[0,0,0,0,0,0,0,0,0,0,0,0,0,0,0],"id":64,"left_children":[1,3,5,7,9,11,13,-1,-1,-1,-1,-1,-1,-1,-1],"loss_changes":[9.6928796E2,6.8105725E2,2.3797449E2,3.6400836E2,4.2175238E2,2.7630896E2,9.728613E1,0E0,0E0,0E0,0E0,0E0,0E0,0E0,0E0],"parents":[2147483647,0,0,1,1,2,2,3,3,4,4,5,5,6,6],"right_children":[2,4,6,8,10,12,14,-1,-1,-1,-1,-1,-1,-1,-1],"split_conditions":[3E0,1E0,1.5141986E1,1E0,7E0,6E0,1E0,-1.8652147E-1,-3.414066E-2,-3.2838147E-2,1.47648E-1,-1.7395444E-3,1.8961589E-1,1.53181E-1,3.4904823E-1],"split_indices":[5,1,0,2,3,3,1,0,0,0,0,0,0,0,0],"split_type":[0,0,0,0,0,0,0,0,0,0,0,0,0,0,0],"sum_hessian":[4E2,2.94E2,1.06E2,1.58E2,1.36E2,7.6E1,3E1,8.5E1,7.3E1,8.5E1,5.1E1,4.4E1,3.2E1,1.7E1,1.3E1],"tree_param":{"num_deleted":"0","num_feature":"6","num_nodes":"15","size_leaf_vector":"1"}},{"base_weights":[6.6373926E-3,-1.4411895E0,1.574457E0,-2.6678972E0,4.912469E-1,1.1130015E0,3.697498E-1,-2.991502E-1,-9.22672E-2,-2.574276E-2,1.8179531E-1,3.2944686E-3,1.7775214E-1],"categories":[],"categories_nodes":[],"categories_segments":[],"categories_sizes":[],"default_left":[0,0,0,0,0,0,0,0,0,0,0,0,0],"id":65,"left_children":[1,3,5,7,9,11,-1,-1,-1,-1,-1,-1,-1],"loss_changes":[9.1251166E2,4.9675238E2,5.1015195E2,3.3799628E2,2.6130756E2,4.600421E2,0E0,0E0,0E0,0E0,0E0,0E0,0E0],"parents":[2147483647,0,0,1,1,2,2,3,3,4,4,5,5],"right_children":[2,4,6,8,10,12,-1,-1,-1,-1,-1,-1,-1],"split_conditions":[1E0,7E0,1.8820229E1,3.643815E0,1.5640053E1,3E0,3.697498E-1,-2.991502E-1,-9.22672E-2,-2.574276E-2,1.8179531E-1,3.2944686E-3,1.7775214E-1],"split_indices":[2,3,0,0,0,5,0,0,0,0,0,0,0],"split_type":[0,0,0,0,0,0,0,0,0,0,0,0,0],"sum_hessian":[4E2,2.08E2,1.92E2,1.27E2,8.1E1,1.79E2,1.3E1,2.4E1,1.03E2,6.2E1,1.9E1,1.26E2,5.3E1],"tree_param":{"num_deleted":"0","num_feature":"6","num_nodes":"13","size_leaf_vector":"1"}},{"base_weights":[7.092188E-3,-1.4987465E0,1.4686067E0,-2.9632585E0,5.670697E-2,-4.2872676E-1,2.8274477E0,-3.6415532E-1,-1.1252185E-1,-3.9983407E-2,1.5970244E-1,-8.14107E-2,5.292791E-2,9.472651E-2,3.3194965E-1],"categories":[],"categories_nodes":[],"categories_segments":[],"categories_sizes":[],"default_left":[0,0,0,0,0,0,0,0,0,0,0,0,0,0,0],"id":66,"left_children":[1,3,5,7,9,11,13,-1,-1,-1,-1,-1,-1,-1,-1],"loss_changes":[8.8472394E2,4.5120822E2,5.271598E2,2.976964E2,2.631681E2,1.5514578E2,4.105691E2,0E0,0E0,0E0,0E0,0E0,0E0,0E0,0E0],"parents":[2147483647,0,0,1,1,2,2,3,3,4,4,5,5,6,6],"right_children":[2,4,6,8,10,12,14,-1,-1,-1,-1,-1,-1,-1,-1],"split_conditions":[1E0,1E0,8.639515E0,2E0,3E0,1E0,8E0,-3.6415532E-1,-1.1252185E-1,-3.9983407E-2,1.5970244E-1,-8.14107E-2,5.292791E-2,9.472651E-2,3.3194965E-1],"split_indices":[4,1,0,3,5,1,3,0,0,0,0,0,0,0,0],"split_type":[0,0,0,0,0,0,0,0,0,0,0,0,0,0,0],"sum_hessian":[4E2,1.97E2,2.03E2,1.01E2,9.6E1,8.5E1,1.18E2,1.3E1,8.8E1,7.6E1,2E1,4.7E1,3.8E1,9.6E1,2.2E1],"tree_param":{"num_deleted":"0","num_feature":"6","num_nodes":"15","size_leaf_vector":"1"}},{"base_weights":[6.840399E-3,-1.3663809E0,1.4938685E0,-5.4533825E0,-8.316797E-1,1.0562843E0,3.5066226E-1,-4.023179E-1,-5.092905E-2,-7.5751826E-2,8.914484E-2,-2.007248E-2,1.309583E-1],"categories":[],"categories_nodes":[],"categories_segments":[],"categories_sizes":[],"default_left":[0,0,0,0,0,0,0,0,0,0,0,0,0],"id":67,"left_children":[1,3,5,7,9,11,-1,-1,-1,-1,-1,-1,-1],"loss_changes":[8.208906E2,4.5219736E2,4.5872403E2,2.677881E2,3.350252E2,4.1113928E2,0E0,0E0,0E0,0E0,0E0,0E0,0E0],"parents":[2147483647,0,0,1,1,2,2,3,3,4,4,5,5],"right_children":[2,4,6,8,10,12,-1,-1,-1,-1,-1,-1,-1],"split_conditions":[1E0,2E0,1.8820229E1,1E0,1.629721E1,1E0,3.5066226E-1,-4.023179E-1,-5.092905E-2,-7.5751826E-2,8.914484E-2,-2.007248E-2,1.309583E-1],"split_indices":[2,3,0,4,0,1,0,0,0,0,0,0,0],"split_type":[0,0,0,0,0,0,0,0,0,0,0,0,0],"sum_hessian":[4E2,2.08E2,1.92E2,2.3E1,1.85E2,1.79E2,1.3E1,1.4E1,9E0,1.47E2,3.8E1,9.3E1,8.6E1],"tree_param":{"num_deleted":"0","num_feature":"6","num_nodes":"13","size_leaf_vector":"1"}},{"base_weights":[6.5529365E-3,-1.4141856E0,1.3854729E0,-1.8888383E0,3.1569548E0,8.2222146E-1,5.5755997E0,-3.1762427E-1,-6.7683235E-2,-1.7486429E-2,2.615832E-1,-4.1813668E-2,1.2922262E-1,1.3819285E-1,3.8710812E-1],"categories":[],"categories_nodes":[],"categories_segments":[],"categories_sizes":[],"default_left":[0,0,0,0,0,0,0,0,0,0,0,0,0,0,0],"id":68,"left_children":[1,3,5,7,9,11,13,-1,-1,-1,-1,-1,-1,-1,-1],"loss_changes":[7.875523E2,4.3556436E2,4.7687497E2,4.213896E2,1.4006128E2,5.311611E2,1.2480542E2,0E0,0E0,0E0,0E0,0E0,0E0,0E0,0E0],"parents":[2147483647,0,0,1,1,2,2,3,3,4,4,5,5,6,6],"right_children":[2,4,6,8,10,12,14,-1,-1,-1,-1,-1,-1,-1,-1],"split_conditions":[1E0,9E0,1.7860144E1,2.3326478E0,1E0,1E0,1E0,-3.1762427E-1,-6.7683235E-2,-1.7486429E-2,2.615832E-1,-4.1813668E-2,1.2922262E-1,1.3819285E-1,3.8710812E-1],"split_indices":[4,3,0,0,5,1,2,0,0,0,0,0,0,0,0],"split_type":[0,0,0,0,0,0,0,0,0,0,0,0,0,0,0],"sum_hessian":[4E2,1.97E2,2.03E2,1.79E2,1.8E1,1.8E2,2.3E1,1.8E1,1.61E2,7E0,1.1E1,9.3E1,8.7E1,1.1E1,1.2E1],"tree_param":{"num_deleted":"0","num_feature":"6","num_nodes":"15","size_leaf_vector":"1"}},{"base_weights":[7.4016163E-3,-8.2191443E-1,2.2937646E0,-3.3089898E0,-6.2310457E-2,-4.4377735E-1,2.9281855E0,-4.1724693E-2,-2.3050883E-1,-2.3644095E-2,2.5186357E-1,-1.14660434E-1,1.1384659E-1,8.125312E-2,2.0541607E-1],"categories":[],"categories_nodes":[],"categories_segments":[],"categories_sizes":[],"default_left":[0,0,0,0,0,0,0,0,0,0,0,0,0,0,0],"id":69,"left_children":[1,3,5,7,9,11,13,-1,-1,-1,-1,-1,-1,-1,-1],"loss_changes":[7.622284E2,5.571056E2,1.8713214E2,2.1831769E2,4.7766156E2,1.1088853E2,1.27117676E2,0E0,0E0,0E0,0E0,0E0,0E0,0E0,0E0],"parents":[2147483647,0,0,1,1,2,2,3,3,4,4,5,5,6,6],"right_children":[2,4,6,8,10,12,14,-1,-1,-1,-1,-1,-1,-1,-1],"split_conditions":[3E0,3E0,3.8774364E0,1E0,1.8838942E1,1E0,5E0,-4.1724693E-2,-2.3050883E-1,-2.3644095E-2,2.5186357E-1,-1.14660434E-1,1.1384659E-1,8.125312E-2,2.0541607E-1],"split_indices":[5,3,0,5,0,1,3,0,0,0,0,0,0,0,0],"split_type":[0,0,0,0,0,0,0,0,0,0,0,0,0,0,0],"sum_hessian":[4E2,2.94E2,1.06E2,6.8E1,2.26E2,2E1,8.6E1,2.4E1,4.4E1,2.1E2,1.6E1,1.2E1,8E0,4.2E1,4.4E1],"tree_param":{"num_deleted":"0","num_feature":"6","num_nodes":"15","size_leaf_vector":"1"}},{"base_weights":[7.634769E-3,-1.2759972E0,1.4115674E0,-2.018483E0,1.4150063E0,3.2010517E-1,3.2262254E0,-1.5640604E-1,-1.2240728E-3,-1.2856065E-2,1.7089392E-1,-9.615271E-3,2.2959237E-1,9.05755E-2,2.377049E-1],"categories":[],"categories_nodes":[],"categories_segments":[],"categories_sizes":[],"default_left":[0,0,0,0,0,0,0,0,0,0,0,0,0,0,0],"id":70,"left_children":[1,3,5,7,9,11,13,-1,-1,-1,-1,-1,-1,-1,-1],"loss_changes":[7.2445636E2,4.224429E2,3.792484E2,3.6500568E2,1.5493546E2,2.6573822E2,1.4701624E2,0E0,0E0,0E0,0E0,0E0,0E0,0E0,0E0],"parents":[2147483647,0,0,1,1,2,2,3,3,4,4,5,5,6,6],"right_children":[2,4,6,8,10,12,14,-1,-1,-1,-1,-1,-1,-1,-1],"split_conditions":[1E0,1.6233278E1,1.2932371E1,7E0,1E0,9E0,1E0,-1.5640604E-1,-1.2240728E-3,-1.2856065E-2,1.7089392E-1,-9.615271E-3,2.2959237E-1,9.05755E-2,2.377049E-1],"split_indices":[1,0,0,3,4,3,4,0,0,0,0,0,0,0,0],"split_type":[0,0,0,0,0,0,0,0,0,0,0,0,0,0,0],"sum_hessian":[4E2,2.09E2,1.91E2,1.64E2,4.5E1,1.2E2,7.1E1,1.05E2,5.9E1,2.5E1,2E1,1.08E2,1.2E1,3.8E1,3.3E1],"tree_param":{"num_deleted":"0","num_feature":"6","num_nodes":"15","size_leaf_vector":"1"}},{"base_weights":[8.62055E-3,-1.27967E0,1.4036677E0,-2.561515E0,1.7047617E-1,-4.830933E0,1.734876E0,-1.8737547E-1,-1.3794861E-2,-7.1369246E-2,9.843462E-2,-7.0888765E-2,-4.7981128E-1,4.2906404E-2,1.8617739E-1],"categories":[],"categories_nodes":[],"categories_segments":[],"categories_sizes":[],"default_left":[0,0,0,0,0,0,0,0,0,0,0,0,0,0,0],"id":71,"left_children":[1,3,5,7,9,11,13,-1,-1,-1,-1,-1,-1,-1,-1],"loss_changes":[7.224839E2,3.8893893E2,4.0691678E2,2.99857E2,2.8726672E2,1.4904169E2,3.1762048E2,0E0,0E0,0E0,0E0,0E0,0E0,0E0,0E0],"parents":[2147483647,0,0,1,1,2,2,3,3,4,4,5,5,6,6],"right_children":[2,4,6,8,10,12,14,-1,-1,-1,-1,-1,-1,-1,-1],"split_conditions":[1E0,6E0,1.2282897E0,1.4700219E1,1E0,6E0,7E0,-1.8737547E-1,-1.3794861E-2,-7.1369246E-2,9.843462E-2,-7.0888765E-2,-4.7981128E-1,4.2906404E-2,1.8617739E-1],"split_indices":[2,3,0,0,4,3,3,0,0,0,0,0,0,0,0],"split_type":[0,0,0,0,0,0,0,0,0,0,0,0,0,0,0],"sum_hessian":[4E2,2.08E2,1.92E2,1.1E2,9.8E1,9E0,1.83E2,7.2E1,3.8E1,5.2E1,4.6E1,6E0,3E0,1.28E2,5.5E1],"tree_param":{"num_deleted":"0","num_feature":"6","num_nodes":"15","size_leaf_vector":"1"}},{"base_weights":[6.952909E-3,-7.7368927E-1,2.1591256E0,-4.351696E0,-3.217961E-1,-3.6621767E-1,2.7438738E0,-2.8843462E-1,-4.9663804E-2,-3.6626287E-2,2.2231281E-1,-1.0506523E-1,1.0903549E-1,6.731039E-2,1.829361E-1],"categories":[],"categories_nodes":[],"categories_segments":[],"categories_sizes":[],"default_left":[0,0,0,0,0,0,0,0,0,0,0,0,0,0,0],"id":72,"left_children":[1,3,5,7,9,11,13,-1,-1,-1,-1,-1,-1,-1,-1],"loss_changes":[6.753812E2,4.7557828E2,1.5901068E2,1.5131287E2,5.1831104E2,9.7384285E1,1.0631726E2,0E0,0E0,0E0,0E0,0E0,0E0,0E0,0E0],"parents":[2147483647,0,0,1,1,2,2,3,3,4,4,5,5,6,6],"right_children":[2,4,6,8,10,12,14,-1,-1,-1,-1,-1,-1,-1,-1],"split_conditions":[3E0,2E0,3.8774364E0,1.4944988E1,1.8838942E1,1E0,1E0,-2.8843462E-1,-4.9663804E-2,-3.6626287E-2,2.2231281E-1,-1.0506523E-1,1.0903549E-1,6.731039E-2,1.829361E-1],"split_indices":[5,3,0,0,0,1,4,0,0,0,0,0,0,0,0],"split_type":[0,0,0,0,0,0,0,0,0,0,0,0,0,0,0],"sum_hessian":[4E2,2.94E2,1.06E2,3.2E1,2.62E2,2E1,8.6E1,2.2E1,1E1,2.42E2,2E1,1.2E1,8E0,3.5E1,5.1E1],"tree_param":{"num_deleted":"0","num_feature":"6","num_nodes":"15","size_leaf_vector":"1"}},{"base_weights":[6.8595675E-3,-1.2065324E0,1.3339713E0,-2.5326824E0,4.5521308E-2,8.609026E-1,4.9503694E0,-1.6217852E-1,1.8188477E-2,-3.877144E-2,2.1194796E-1,-7.205482E-3,1.2930341E-1,1.1131239E-1,3.0366048E-1],"categories":[],"categories_nodes":[],"categories_segments":[],"categories_sizes":[],"default_left":[0,0,0,0,0,0,0,0,0,0,0,0,0,0,0],"id":73,"left_children":[1,3,5,7,9,11,13,-1,-1,-1,-1,-1,-1,-1,-1],"loss_changes":[6.4734235E2,3.4880164E2,3.2421268E2,2.1120331E2,3.785308E2,2.968546E2,5.3772034E1,0E0,0E0,0E0,0E0,0E0,0E0,0E0,0E0],"parents":[2147483647,0,0,1,1,2,2,3,3,4,4,5,5,6,6],"right_children":[2,4,6,8,10,12,14,-1,-1,-1,-1,-1,-1,-1,-1],"split_conditions":[1E0,1E0,9E0,8E0,1.7608774E1,1.2932371E1,1E0,-1.6217852E-1,1.8188477E-2,-3.877144E-2,2.1194796E-1,-7.205482E-3,1.2930341E-1,1.1131239E-1,3.0366048E-1],"split_indices":[1,4,3,3,0,0,5,0,0,0,0,0,0,0,0],"split_type":[0,0,0,0,0,0,0,0,0,0,0,0,0,0,0],"sum_hessian":[4E2,2.09E2,1.91E2,1.01E2,1.08E2,1.7E2,2.1E1,8.1E1,2E1,9.1E1,1.7E1,1.08E2,6.2E1,7E0,1.4E1],"tree_param":{"num_deleted":"0","num_feature":"6","num_nodes":"15","size_leaf_vector":"1"}},{"base_weights":[7.928606E-3,-1.2088695E0,1.3255601E0,-2.2248619E0,3.918122E-1,-4.490379E0,1.6344396E0,-1.538347E-1,1.8752946E-3,-5.1495023E-2,9.928746E-2,-5.9998292E-2,-4.5630035E-1,6.2891155E-2,2.896899E-1],"categories":[],"categories_nodes":[],"categories_segments":[],"categories_sizes":[],"default_left":[0,0,0,0,0,0,0,0,0,0,0,0,0,0,0],"id":74,"left_children":[1,3,5,7,9,11,13,-1,-1,-1,-1,-1,-1,-1,-1],"loss_changes":[6.445223E2,3.4076437E2,3.5404926E2,2.467915E2,1.8786697E2,1.4158041E2,2.8094525E2,0E0,0E0,0E0,0E0,0E0,0E0,0E0,0E0],"parents":[2147483647,0,0,1,1,2,2,3,3,4,4,5,5,6,6],"right_children":[2,4,6,8,10,12,14,-1,-1,-1,-1,-1,-1,-1,-1],"split_conditions":[1E0,7E0,1.2282897E0,3E0,1E0,6E0,1.8649767E1,-1.538347E-1,1.8752946E-3,-5.1495023E-2,9.928746E-2,-5.9998292E-2,-4.5630035E-1,6.2891155E-2,2.896899E-1],"split_indices":[2,3,0,5,4,3,0,0,0,0,0,0,0,0,0],"split_type":[0,0,0,0,0,0,0,0,0,0,0,0,0,0,0],"sum_hessian":[4E2,2.08E2,1.92E2,1.27E2,8.1E1,9E0,1.83E2,9.2E1,3.5E1,4.3E1,3.8E1,6E0,3E0,1.69E2,1.4E1],"tree_param":{"num_deleted":"0","num_feature":"6","num_nodes":"15","size_leaf_vector":"1"}},{"base_weights":[6.864391E-3,-1.1455162E0,1.2672448E0,-1.7916057E0,1.1968815E0,4.0751506E-2,2.4933136E0,-1.6969521E-1,-3.3076253E-2,-1.0619127E-2,1.4423452E-1,-3.372721E-2,1.330781E-1,-6.8980413E-3,1.8171413E-1],"categories":[],"categories_nodes":[],"categories_segments":[],"categories_sizes":[],"default_left":[0,0,0,0,0,0,0,0,0,0,0,0,0,0,0],"id":75,"left_children":[1,3,5,7,9,11,13,-1,-1,-1,-1,-1,-1,-1,-1],"loss_changes":[5.838792E2,3.1995804E2,2.886213E2,2.9652478E2,1.10026794E2,1.8363683E2,2.8871283E2,0E0,0E0,0E0,0E0,0E0,0E0,0E0,0E0],"parents":[2147483647,0,0,1,1,2,2,3,3,4,4,5,5,6,6],"right_children":[2,4,6,8,10,12,14,-1,-1,-1,-1,-1,-1,-1,-1],"split_conditions":[1E0,1.6233278E1,1E0,5E0,1E0,3E0,4E0,-1.6969521E-1,-3.3076253E-2,-1.0619127E-2,1.4423452E-1,-3.372721E-2,1.330781E-1,-6.8980413E-3,1.8171413E-1],"split_indices":[1,0,4,3,4,5,3,0,0,0,0,0,0,0,0],"split_type":[0,0,0,0,0,0,0,0,0,0,0,0,0,0,0],"sum_hessian":[4E2,2.09E2,1.91E2,1.64E2,4.5E1,9.6E1,9.5E1,6.7E1,9.7E1,2.5E1,2E1,7.6E1,2E1,2.9E1,6.6E1],"tree_param":{"num_deleted":"0","num_feature":"6","num_nodes":"15","size_leaf_vector":"1"}},{"base_weights":[7.031681E-3,-1.1481296E0,1.2579212E0,-4.630297E0,-6.9264495E-1,-4.2707033E0,1.5515534E0,-2.8680298E-1,-8.5088275E-2,-8.968031E-2,3.0419922E-2,-5.4798424E-2,-4.3794066E-1,3.8055103E-2,1.6723542E-1],"categories":[],"categories_nodes":[],"categories_segments":[],"categories_sizes":[],"default_left":[0,0,0,0,0,0,0,0,0,0,0,0,0,0,0],"id":76,"left_children":[1,3,5,7,9,11,13,-1,-1,-1,-1,-1,-1,-1,-1],"loss_changes":[5.808809E2,3.282823E2,3.1993896E2,6.795679E1,2.6751736E2,1.3288618E2,2.5825626E2,0E0,0E0,0E0,0E0,0E0,0E0,0E0,0E0],"parents":[2147483647,0,0,1,1,2,2,3,3,4,4,5,5,6,6],"right_children":[2,4,6,8,10,12,14,-1,-1,-1,-1,-1,-1,-1,-1],"split_conditions":[1E0,2.4046063E0,1.2282897E0,3E0,1E0,6E0,7E0,-2.8680298E-1,-8.5088275E-2,-8.968031E-2,3.0419922E-2,-5.4798424E-2,-4.3794066E-1,3.8055103E-2,1.6723542E-1],"split_indices":[2,0,0,5,4,3,3,0,0,0,0,0,0,0,0],"split_type":[0,0,0,0,0,0,0,0,0,0,0,0,0,0,0],"sum_hessian":[4E2,2.08E2,1.92E2,2.3E1,1.85E2,9E0,1.83E2,1.6E1,7E0,1E2,8.5E1,6E0,3E0,1.28E2,5.5E1],"tree_param":{"num_deleted":"0","num_feature":"6","num_nodes":"15","size_leaf_vector":"1"}},{"base_weights":[4.888777E-3,-6.9329375E-1,1.9297389E0,-3.9529648E0,-2.816495E-1,5.794108E-1,2.8636281E0,-2.6332998E-1,-4.2345654E-2,-3.264685E-2,2.0140445E-1,-7.846605E-2,5.8009304E-2,7.872672E-2,2.1145736E-1],"categories":[],"categories_nodes":[],"categories_segments":[],"categories_sizes":[],"default_left":[0,0,0,0,0,0,0,0,0,0,0,0,0,0,0],"id":77,"left_children":[1,3,5,7,9,11,13,-1,-1,-1,-1,-1,-1,-1,-1],"loss_changes":[5.402405E2,3.947249E2,1.3327383E2,1.3018689E2,4.234701E2,5.7977566E1,1.0423883E2,0E0,0E0,0E0,0E0,0E0,0E0,0E0,0E0],"parents":[2147483647,0,0,1,1,2,2,3,3,4,4,5,5,6,6],"right_children":[2,4,6,8,10,12,14,-1,-1,-1,-1,-1,-1,-1,-1],"split_conditions":[3E0,2E0,8.849591E0,1.4944988E1,1.8838942E1,1.6223959E0,5E0,-2.6332998E-1,-4.2345654E-2,-3.264685E-2,2.0140445E-1,-7.846605E-2,5.8009304E-2,7.872672E-2,2.1145736E-1],"split_indices":[5,3,0,0,0,0,3,0,0,0,0,0,0,0,0],"split_type":[0,0,0,0,0,0,0,0,0,0,0,0,0,0,0],"sum_hessian":[4E2,2.94E2,1.06E2,3.2E1,2.62E2,4.4E1,6.2E1,2.2E1,1E1,2.42E2,2E1,9E0,3.5E1,3.3E1,2.9E1],"tree_param":{"num_deleted":"0","num_feature":"6","num_nodes":"15","size_leaf_vector":"1"}},{"base_weights":[4.9753687E-3,-1.0895735E0,1.2021122E0,-2.3307748E0,-2.3905838E-2,7.732616E-1,4.4808097E0,-1.3975708E-1,3.1095533E-2,-5.2803498E-2,8.210875E-2,-6.6010156E-3,1.1636346E-1,-6.510754E-2,2.409098E-1],"categories":[],"categories_nodes":[],"categories_segments":[],"categories_sizes":[],"default_left":[0,0,0,0,0,0,0,0,0,0,0,0,0,0,0],"id":78,"left_children":[1,3,5,7,9,11,13,-1,-1,-1,-1,-1,-1,-1,-1],"loss_changes":[5.2675E2,2.7771295E2,2.6650082E2,1.3473785E2,1.9777649E2,2.408726E2,4.919806E1,0E0,0E0,0E0,0E0,0E0,0E0,0E0,0E0],"parents":[2147483647,0,0,1,1,2,2,3,3,4,4,5,5,6,6],"right_children":[2,4,6,8,10,12,14,-1,-1,-1,-1,-1,-1,-1,-1],"split_conditions":[1E0,1.0471177E1,9E0,9E0,6E0,1.2932371E1,1.2951152E0,-1.3975708E-1,3.1095533E-2,-5.2803498E-2,8.210875E-2,-6.6010156E-3,1.1636346E-1,-6.510754E-2,2.409098E-1],"split_indices":[1,0,3,3,3,0,0,0,0,0,0,0,0,0,0],"split_type":[0,0,0,0,0,0,0,0,0,0,0,0,0,0,0],"sum_hessian":[4E2,2.09E2,1.91E2,9.6E1,1.13E2,1.7E2,2.1E1,8.3E1,1.3E1,7E1,4.3E1,1.08E2,6.2E1,1E0,2E1],"tree_param":{"num_deleted":"0","num_feature":"6","num_nodes":"15","size_leaf_vector":"1"}},{"base_weights":[5.239834E-3,-1.0890628E0,1.1902347E0,-4.3517246E0,-6.62219E-1,-3.9446597E0,1.4628364E0,1.52035E-2,-3.1433514E-1,-1.6120075E-1,-9.391236E-3,-4.36373E-2,-4.167172E-1,5.6264814E-2,2.595385E-1],"categories":[],"categories_nodes":[],"categories_segments":[],"categories_sizes":[],"default_left":[0,0,0,0,0,0,0,0,0,0,0,0,0,0,0],"id":79,"left_children":[1,3,5,7,9,11,13,-1,-1,-1,-1,-1,-1,-1,-1],"loss_changes":[5.2129016E2,2.881814E2,2.759281E2,2.1812433E2,2.2544049E2,1.2757353E2,2.256911E2,0E0,0E0,0E0,0E0,0E0,0E0,0E0,0E0],"parents":[2147483647,0,0,1,1,2,2,3,3,4,4,5,5,6,6],"right_children":[2,4,6,8,10,12,14,-1,-1,-1,-1,-1,-1,-1,-1],"split_conditions":[1E0,2E0,1.2282897E0,1E0,2.97768E0,6E0,1.8649767E1,1.52035E-2,-3.1433514E-1,-1.6120075E-1,-9.391236E-3,-4.36373E-2,-4.167172E-1,5.6264814E-2,2.595385E-1],"split_indices":[2,3,0,5,0,3,0,0,0,0,0,0,0,0,0],"split_type":[0,0,0,0,0,0,0,0,0,0,0,0,0,0,0],"sum_hessian":[4E2,2.08E2,1.92E2,2.3E1,1.85E2,9E0,1.83E2,7E0,1.6E1,2.8E1,1.57E2,6E0,3E0,1.69E2,1.4E1],"tree_param":{"num_deleted":"0","num_feature":"6","num_nodes":"15","size_leaf_vector":"1"}},{"base_weights":[3.4458132E-3,-1.1290259E0,1.1025927E0,-1.5033739E0,2.4768507E0,-2.9900786E-1,2.1062486E0,-2.4654303E-1,-5.4605234E-2,-2.3793507E-2,2.1194637E-1,-1.0400762E-1,1.1856994E-2,6.879674E-2,2.547346E-1],"categories":[],"categories_nodes":[],"categories_segments":[],"categories_sizes":[],"default_left":[0,0,0,0,0,0,0,0,0,0,0,0,0,0,0],"id":80,"left_children":[1,3,5,7,9,11,13,-1,-1,-1,-1,-1,-1,-1,-1],"loss_changes":[5.003907E2,2.7099445E2,2.8760162E2,2.4834659E2,1.0087266E2,8.261955E1,2.5270782E2,0E0,0E0,0E0,0E0,0E0,0E0,0E0,0E0],"parents":[2147483647,0,0,1,1,2,2,3,3,4,4,5,5,6,6],"right_children":[2,4,6,8,10,12,14,-1,-1,-1,-1,-1,-1,-1,-1],"split_conditions":[1E0,9E0,8.639515E0,2.3326478E0,1E0,3E0,8E0,-2.4654303E-1,-5.4605234E-2,-2.3793507E-2,2.1194637E-1,-1.0400762E-1,1.1856994E-2,6.879674E-2,2.547346E-1],"split_indices":[4,3,0,0,5,3,3,0,0,0,0,0,0,0,0],"split_type":[0,0,0,0,0,0,0,0,0,0,0,0,0,0,0],"sum_hessian":[4E2,1.97E2,2.03E2,1.79E2,1.8E1,8.5E1,1.18E2,1.8E1,1.61E2,7E0,1.1E1,1.9E1,6.6E1,9.6E1,2.2E1],"tree_param":{"num_deleted":"0","num_feature":"6","num_nodes":"15","size_leaf_vector":"1"}},{"base_weights":[3.568735E-3,-6.488249E-1,1.8021907E0,-1.6492015E0,5.1693213E-1,1.1465164E0,3.3726656E0,-1.8044995E-1,-5.1262736E-2,-2.3886858E-2,1.0760105E-1,-2.7029885E-3,1.3744615E-1,9.431699E-2,2.5213757E-1],"categories":[],"categories_nodes":[],"categories_segments":[],"categories_sizes":[],"default_left":[0,0,0,0,0,0,0,0,0,0,0,0,0,0,0],"id":81,"left_children":[1,3,5,7,9,11,13,-1,-1,-1,-1,-1,-1,-1,-1],"loss_changes":[4.717065E2,3.4488034E2,1.0631323E2,1.907265E2,2.2384116E2,1.4828206E2,6.743869E1,0E0,0E0,0E0,0E0,0E0,0E0,0E0,0E0],"parents":[2147483647,0,0,1,1,2,2,3,3,4,4,5,5,6,6],"right_children":[2,4,6,8,10,12,14,-1,-1,-1,-1,-1,-1,-1,-1],"split_conditions":[3E0,1E0,1.5141986E1,3E0,7E0,6E0,1E0,-1.8044995E-1,-5.1262736E-2,-2.3886858E-2,1.0760105E-1,-2.7029885E-3,1.3744615E-1,9.431699E-2,2.5213757E-1],"split_indices":[5,1,0,3,3,3,1,0,0,0,0,0,0,0,0],"split_type":[0,0,0,0,0,0,0,0,0,0,0,0,0,0,0],"sum_hessian":[4E2,2.94E2,1.06E2,1.58E2,1.36E2,7.6E1,3E1,3.7E1,1.21E2,8.5E1,5.1E1,4.4E1,3.2E1,1.7E1,1.3E1],"tree_param":{"num_deleted":"0","num_feature":"6","num_nodes":"15","size_leaf_vector":"1"}},{"base_weights":[4.2218757E-3,-1.0312132E0,1.1254742E0,-4.0361223E0,-6.3793886E-1,-3.6012318E0,1.3762437E0,1.6637063E-2,-2.9273197E-1,-1.4985333E-1,-1.0044839E-2,-3.4222413E-2,-3.9026475E-1,5.2994E-2,2.4349748E-1],"categories":[],"categories_nodes":[],"categories_segments":[],"categories_sizes":[],"default_left":[0,0,0,0,0,0,0,0,0,0,0,0,0,0,0],"id":82,"left_children":[1,3,5,7,9,11,13,-1,-1,-1,-1,-1,-1,-1,-1],"loss_changes":[4.667152E2,2.4441171E2,2.337217E2,1.9262454E2,1.9117099E2,1.1728111E2,1.9821024E2,0E0,0E0,0E0,0E0,0E0,0E0,0E0,0E0],"parents":[2147483647,0,0,1,1,2,2,3,3,4,4,5,5,6,6],"right_children":[2,4,6,8,10,12,14,-1,-1,-1,-1,-1,-1,-1,-1],"split_conditions":[1E0,2E0,1.2282897E0,1E0,2.97768E0,6E0,1.8649767E1,1.6637063E-2,-2.9273197E-1,-1.4985333E-1,-1.0044839E-2,-3.4222413E-2,-3.9026475E-1,5.2994E-2,2.4349748E-1],"split_indices":[2,3,0,5,0,3,0,0,0,0,0,0,0,0,0],"split_type":[0,0,0,0,0,0,0,0,0,0,0,0,0,0,0],"sum_hessian":[4E2,2.08E2,1.92E2,2.3E1,1.85E2,9E0,1.83E2,7E0,1.6E1,2.8E1,1.57E2,6E0,3E0,1.69E2,1.4E1],"tree_param":{"num_deleted":"0","num_feature":"6","num_nodes":"15","size_leaf_vector":"1"}},{"base_weights":[2.6053763E-3,-1.0632654E0,1.0371143E0,-1.40918E0,2.2697823E0,-2.627192E-1,1.9677744E0,-2.2535436E-1,-5.185733E-2,-2.4948692E-2,1.9632356E-1,-5.3440303E-2,3.68062E-2,6.445748E-2,2.3721229E-1],"categories":[],"categories_nodes":[],"categories_segments":[],"categories_sizes":[],"default_left":[0,0,0,0,0,0,0,0,0,0,0,0,0,0,0],"id":83,"left_children":[1,3,5,7,9,11,13,-1,-1,-1,-1,-1,-1,-1,-1],"loss_changes":[4.4326648E2,2.3148267E2,2.4729645E2,2.0278E2,8.9111595E1,7.0030045E1,2.181016E2,0E0,0E0,0E0,0E0,0E0,0E0,0E0,0E0],"parents":[2147483647,0,0,1,1,2,2,3,3,4,4,5,5,6,6],"right_children":[2,4,6,8,10,12,14,-1,-1,-1,-1,-1,-1,-1,-1],"split_conditions":[1E0,9E0,8.639515E0,2.3326478E0,1E0,1E0,8E0,-2.2535436E-1,-5.185733E-2,-2.4948692E-2,1.9632356E-1,-5.3440303E-2,3.68062E-2,6.445748E-2,2.3721229E-1],"split_indices":[4,3,0,0,5,1,3,0,0,0,0,0,0,0,0],"split_type":[0,0,0,0,0,0,0,0,0,0,0,0,0,0,0],"sum_hessian":[4E2,1.97E2,2.03E2,1.79E2,1.8E1,8.5E1,1.18E2,1.8E1,1.61E2,7E0,1.1E1,4.7E1,3.8E1,9.6E1,2.2E1],"tree_param":{"num_deleted":"0","num_feature":"6","num_nodes":"15","size_leaf_vector":"1"}},{"base_weights":[2.9212304E-3,-9.729314E-1,1.0702448E0,-1.5082781E0,9.6848506E-1,-1.6759095E0,1.4725282E0,-1.4420529E-1,-2.6911587E-2,6.455269E-2,-2.0426743E-1,-1.3267149E-1,3.664997E-2,1.5818408E-2,1.3701749E-1],"categories":[],"categories_nodes":[],"categories_segments":[],"categories_sizes":[],"default_left":[0,0,0,0,0,0,0,0,0,0,0,0,0,0,0],"id":84,"left_children":[1,3,5,7,9,11,13,-1,-1,-1,-1,-1,-1,-1,-1],"loss_changes":[4.18703E2,2.1972026E2,2.1457645E2,2.1865936E2,8.026396E1,6.0813896E1,2.4538824E2,0E0,0E0,0E0,0E0,0E0,0E0,0E0,0E0],"parents":[2147483647,0,0,1,1,2,2,3,3,4,4,5,5,6,6],"right_children":[2,4,6,8,10,12,14,-1,-1,-1,-1,-1,-1,-1,-1],"split_conditions":[1E0,1.6233278E1,2E0,5E0,1.972702E1,3E0,1E0,-1.4420529E-1,-2.6911587E-2,6.455269E-2,-2.0426743E-1,-1.3267149E-1,3.664997E-2,1.5818408E-2,1.3701749E-1],"split_indices":[1,0,3,3,0,5,2,0,0,0,0,0,0,0,0],"split_type":[0,0,0,0,0,0,0,0,0,0,0,0,0,0,0],"sum_hessian":[4E2,2.09E2,1.91E2,1.64E2,4.5E1,2.4E1,1.67E2,6.7E1,9.7E1,4.3E1,2E0,1.7E1,7E0,8.8E1,7.9E1],"tree_param":{"num_deleted":"0","num_feature":"6","num_nodes":"15","size_leaf_vector":"1"}},{"base_weights":[2.1420715E-3,-6.0405356E-1,1.6734091E0,-8.9358294E-1,2.7024481E0,-3.359361E-1,2.083568E0,-8.621776E-2,2.6502252E-2,-1.1180282E-1,1.7572139E-1,-7.724623E-2,9.7865954E-2,4.609069E-2,1.4276457E-1],"categories":[],"categories_nodes":[],"categories_segments":[],"categories_sizes":[],"default_left":[0,0,0,0,0,0,0,0,0,0,0,0,0,0,0],"id":85,"left_children":[1,3,5,7,9,11,13,-1,-1,-1,-1,-1,-1,-1,-1],"loss_changes":[4.0726984E2,2.84827E2,8.8884094E1,3.2261127E2,1.04097595E2,5.570177E1,7.716116E1,0E0,0E0,0E0,0E0,0E0,0E0,0E0,0E0],"parents":[2147483647,0,0,1,1,2,2,3,3,4,4,5,5,6,6],"right_children":[2,4,6,8,10,12,14,-1,-1,-1,-1,-1,-1,-1,-1],"split_conditions":[3E0,1.8838942E1,3.5418932E0,7E0,2E0,7E0,1E0,-8.621776E-2,2.6502252E-2,-1.1180282E-1,1.7572139E-1,-7.724623E-2,9.7865954E-2,4.609069E-2,1.4276457E-1],"split_indices":[5,0,0,3,3,3,4,0,0,0,0,0,0,0,0],"split_type":[0,0,0,0,0,0,0,0,0,0,0,0,0,0,0],"sum_hessian":[4E2,2.94E2,1.06E2,2.71E2,2.3E1,1.8E1,8.8E1,1.71E2,1E2,3E0,2E1,1.2E1,6E0,3.6E1,5.2E1],"tree_param":{"num_deleted":"0","num_feature":"6","num_nodes":"15","size_leaf_vector":"1"}},{"base_weights":[2.5682044E-3,-9.516156E-1,1.035842E0,-3.6769168E0,-5.9484756E-1,-3.2190158E0,1.2614547E0,-2.315022E-1,-5.9595373E-2,-7.8360714E-2,2.4126604E-2,-2.0561274E-2,-3.6639476E-1,4.887627E-2,2.1976113E-1],"categories":[],"categories_nodes":[],"categories_segments":[],"categories_sizes":[],"default_left":[0,0,0,0,0,0,0,0,0,0,0,0,0,0,0],"id":86,"left_children":[1,3,5,7,9,11,13,-1,-1,-1,-1,-1,-1,-1,-1],"loss_changes":[3.9634488E2,2.0102357E2,1.8933096E2,5.132614E1,1.9561133E2,1.1235531E2,1.594209E2,0E0,0E0,0E0,0E0,0E0,0E0,0E0,0E0],"parents":[2147483647,0,0,1,1,2,2,3,3,4,4,5,5,6,6],"right_children":[2,4,6,8,10,12,14,-1,-1,-1,-1,-1,-1,-1,-1],"split_conditions":[1E0,2.4046063E0,1.2282897E0,3E0,1E0,6E0,1.8649767E1,-2.315022E-1,-5.9595373E-2,-7.8360714E-2,2.4126604E-2,-2.0561274E-2,-3.6639476E-1,4.887627E-2,2.1976113E-1],"split_indices":[2,0,0,5,1,3,0,0,0,0,0,0,0,0,0],"split_type":[0,0,0,0,0,0,0,0,0,0,0,0,0,0,0],"sum_hessian":[4E2,2.08E2,1.92E2,2.3E1,1.85E2,9E0,1.83E2,1.6E1,7E0,9.7E1,8.8E1,6E0,3E0,1.69E2,1.4E1],"tree_param":{"num_deleted":"0","num_feature":"6","num_nodes":"15","size_leaf_vector":"1"}},{"base_weights":[1.2847063E-3,-9.9615633E-1,9.6938294E-1,-3.6145535E0,-6.1422485E-1,-2.154706E-1,1.8175176E0,-2.8101382E-1,-2.7544057E-2,-4.6993893E-2,1.3301706E-1,-8.854004E-2,1.2601152E-2,5.9602458E-2,2.1881703E-1],"categories":[],"categories_nodes":[],"categories_segments":[],"categories_sizes":[],"default_left":[0,0,0,0,0,0,0,0,0,0,0,0,0,0,0],"id":87,"left_children":[1,3,5,7,9,11,13,-1,-1,-1,-1,-1,-1,-1,-1],"loss_changes":[3.881797E2,1.9578941E2,2.0539435E2,1.5052582E2,1.880492E2,6.297748E1,1.8523828E2,0E0,0E0,0E0,0E0,0E0,0E0,0E0,0E0],"parents":[2147483647,0,0,1,1,2,2,3,3,4,4,5,5,6,6],"right_children":[2,4,6,8,10,12,14,-1,-1,-1,-1,-1,-1,-1,-1],"split_conditions":[1E0,2E0,8.639515E0,1E0,1.8838942E1,3E0,8E0,-2.8101382E-1,-2.7544057E-2,-4.6993893E-2,1.3301706E-1,-8.854004E-2,1.2601152E-2,5.9602458E-2,2.1881703E-1],"split_indices":[4,3,0,2,0,3,3,0,0,0,0,0,0,0,0],"split_type":[0,0,0,0,0,0,0,0,0,0,0,0,0,0,0],"sum_hessian":[4E2,1.97E2,2.03E2,2.4E1,1.73E2,8.5E1,1.18E2,1.4E1,1E1,1.58E2,1.5E1,1.9E1,6.6E1,9.6E1,2.2E1],"tree_param":{"num_deleted":"0","num_feature":"6","num_nodes":"15","size_leaf_vector":"1"}},{"base_weights":[1.171074E-3,-5.6530595E-1,1.5629425E0,-1.430219E0,4.4262472E-1,7.503403E-1,2.5094852E0,-1.550115E-1,-4.4916436E-2,-2.7004981E-2,8.3792835E-2,1.43669695E-2,1.6453205E-1,4.814503E-2,1.8670012E-1],"categories":[],"categories_nodes":[],"categories_segments":[],"categories_sizes":[],